svm_type c_svc
kernel_type rbf
gamma 0.0005
nr_class 2
total_sv 1594
rho 7.33571
label 1 -1
nr_sv 803 791
scaling 1:0.67441499 2:0.46516401 3:0.38253999 4:0.36643201 5:0.40287599 6:0.063156597 7:0.32685399 8:0.551157 9:0.59161901 10:0.33043799 11:0.60761797 12:0.48265001 13:0.25700101 14:0.397246 15:0.20719799 16:0.44146401 17:0.38108501 18:0.39089799 19:0.57766402 20:0.78905898 21:0.24118701 22:0.411659 23:0.334802 24:0.56888503 25:0.468454 26:0.41003901 27:0.35519299 28:0.27053401 29:0.22146 30:0.68234098 31:0.38940799 32:0.522695 33:0.338873 34:0.405083 35:0.394115 36:0.49665001 37:0.303298 38:0.35977799 39:0.51099598 40:0.25372401 41:0.292308 42:0.370444 43:0.060664501 44:0.324913 45:0.53117901 46:0.42561799 47:0.190585 48:0.25931299 49:0.127143 50:0.62111503 51:0.38918301 52:0.30087501 53:0.41934499 54:0.35503501 55:0.29594499 56:0.54401398 57:0.38151801 58:0.16395301 59:0.35582 60:0.403983 61:0.55102998 62:0.55054301 63:0.34553 64:0.341369 65:0.19008601 66:0.30188999 67:0.31329501 68:0.313582 69:0.428487 70:0.366795 71:0.55325699 72:0.39017901 73:0.50819999 74:0.323082 75:0.38854501 76:0.48639601 77:0.37855399 78:0.144539 79:0.40665999 80:0.362957 81:0.24869099 82:0.42633501 83:0.32728499 84:0.13254499 85:0.48895901 86:0.48046401 87:0.471784 88:0.34716001 89:0.361018 90:0.38042799 91:0.34782201 92:0.327647 93:0.171248 94:0.32743099 95:0.689991 96:0.28548399 97:0.36012501 98:0.36208299 99:0.48307401 100:0.338826 101:0.81353903 102:0.51248598 103:0.202869 104:0.59148097 105:0.431142 106:0.52072299 107:0.30578199 108:0.41403899 109:0.32074401 110:0.27557001 111:0.31828699 112:0.51194203 113:0.51073599 114:0.53112501 115:0.32088801 116:0.59537798 117:0.45216399 118:0.38809299 119:0.53415102 120:0.42851201 121:0.0800751 122:0.77070099 123:0.46171099 124:0.48911899 125:0.22126099 126:0.231151 127:0.43505701 128:0.299422 129:0.354491 130:0.66471797 131:0.61230099 132:0.123796 133:0.65509897 134:0.313117 135:0.36307999 136:0.49081501 137:0.321659 138:0.46012601 139:0.32841799 140:0.79015499 141:0.40338099 142:0.186178 143:0.45028901 144:0.28292799 145:0.167051 146:0.64308298 147:0.470222 148:0.321444 149:0.44952899 150:0.218652 151:0.41337299 153:0.38796499 154:0.201739 155:0.072988398 156:0.56515402 157:0.28177401 158:0.224501 159:0.262059 160:0.519288 161:0.37294099 162:0.31254801 164:0.42329001 165:0.73412299 166:0.383616 167:0.431889 168:0.22886901 169:0.535133 170:0.35177401 171:0.284107 172:0.28876001 173:0.45303899 174:0.337046 175:0.37691501 176:0.28546101 177:0.26701999 178:0.34473699 179:0.44531399 180:0.30761701 181:0.29266801 182:0.52784699 183:0.26160401 184:0.52035898 185:0.19638 186:0.272136 187:0.48807299 188:0.18974701 189:0.409316 190:0.29615501 191:0.67373502 192:0.16401599 193:0.41114101 194:0.373577 195:0.41034999 196:0.53997201 197:0.291982 198:0.27590099 199:0.213864 200:0.31489599 201:0.562549 202:0.77191299 203:0.40824801 204:0.31575799 205:0.35799 206:0.13131499 207:0.58603001 208:0.53229499 209:0.26627299 210:0.37507799 211:0.55407101 212:0.244923 213:0.43678099 214:0.31770799 215:0.118341 216:0.4461 217:0.64104599 218:0.270603 219:0.28837499 220:0.321246 221:0.368707 222:0.64056599 223:0.48147199 224:0.223177 225:0.52502602 226:0.26782 227:0.40169099 228:0.475402 229:0.27359799 230:0.36860099 231:0.27631301 232:0.35186899 233:0.410173 234:0.26818699 235:0.53999698 236:0.59982198 237:0.43151501 238:0.67334503 239:0.35001999 240:0.184902 241:0.38813901 242:0.27929899 243:0.201446 244:0.62139398 245:0.23626199 246:0.350665 247:0.238217 248:0.53778797 249:0.19381601 250:0.451583 251:0.200166 252:0.33548501 253:0.295872 254:0.337937 255:0.25942099 256:0.26739001 257:0.27715999 258:0.188041 259:0.334638 260:0.237516 261:0.35541701 262:0.218771 263:0.64514899 264:0.297135 265:0.478412 266:0.106347 267:0.396983 268:0.427187 269:0.456633 270:0.31542 271:0.46882501 272:0.380968 273:0.37587199 274:0.42936501 275:0.315043 276:0.60538602 277:0.304371 278:0.27722499 279:0.171003 280:0.45918 281:0.408871 282:0.149441 283:0.231922 284:0.210567 285:0.215332 286:0.232058 287:0.27843401 288:0.284253 289:0.39433399 290:0.25523099 291:0.145357 292:0.236029 293:0.351109 294:0.63621098 295:0.39330101 296:0.228737 297:0.444626 298:0.27753499 299:0.30857 300:0.560803 301:0.45891801 302:0.395181 303:0.67479903 304:0.42516899 305:0.59044898 306:0.16551401 307:0.214488 308:0.263717 309:0.17492799 310:0.32613 311:0.19404601 312:0.32615101 313:0.52250999 314:0.182097 315:0.429254 316:0.51428998 317:0.25865901 318:0.552876 319:0.220699 320:0.27743599 321:0.31342101 322:0.384 323:0.34349301 324:0.47394601 325:0.33069399 326:0.57489002 327:0.33521599 328:0.41363499 329:0.48044601 330:0.20223001 331:0.18773399 332:0.38810399 333:0.257128 334:0.58896601 335:0.207744 336:0.359467 337:0.28635401 338:0.459277 339:0.447907 340:0.140586 341:0.26518899 342:0.26112601 343:0.43083 344:0.71252602 345:0.29426199 346:0.35516399 347:0.293515 348:0.154084 349:0.47098401 350:0.39370999 351:0.31093901 352:0.59572899 353:0.38947499 354:0.27011201 355:0.23564599 356:0.48740301 357:0.54120499 358:0.553298 359:0.468243 360:0.47664601 361:0.48701501 362:0.153901 363:0.241428 364:0.24358 365:0.220333 366:0.187589 367:0.218512 368:0.29303601 369:0.14191601 370:0.47477001 371:0.373633 372:0.275931 373:0.29324901 374:0.197118 375:0.45734099 376:0.44583899 377:0.194067 378:0.16750599 379:0.49454001 380:0.295102 381:0.46596301 382:0.31706399 383:0.64349902 384:0.38687101 385:0.362082 386:0.48372701 387:0.26714501 388:0.311333 389:0.29060999 390:0.223262 391:0.25876099 392:0.092324696 393:0.33316901 394:0.236307 395:0.391047 396:0.129069 397:0.451904 398:0.260286 399:0.275172 400:0.53301901 401:0.43053499 402:0.346912 403:0.32409999 404:0.33052301 405:0.172934 406:0.205494 407:0.31262499 408:0.31639901 409:0.30980101 410:0.63322699 411:0.228422 412:0.420775 413:0.33985901 414:0.30472401 415:0.198183 416:0.221615 417:0.171637 418:0.223407 419:0.192 420:0.49234501 421:0.248578 422:0.26740101 423:0.30380499 424:0.43035999 425:0.81875998 426:0.362688 427:0.36455101 428:0.420118 429:0.33540499 430:0.33156699 431:0.56468898 432:0.37438899 433:0.182327 434:0.31637299 435:0.160418 436:0.40412599 437:0.432625 438:0.187031 439:0.42820501 440:0.51371402 441:0.309084 442:0.53044897 443:0.13034099 444:0.64262497 445:0.59410203 446:0.290856 447:0.439547 448:0.41217801 449:0.22130001 450:0.58963299 451:0.48990399 452:0.41769901 453:0.15132999 454:0.198761 455:0.27137399 456:0.461445 457:0.31583399 458:0.32228899 459:0.154797 460:0.33457601 461:0.25045899 462:0.37778899 463:0.221817 464:0.46495 465:0.32699901 466:0.161557 467:0.31839401 468:0.53054899 469:0.14961199 470:0.46063599 471:0.49728301 472:0.368063 473:0.25350401 474:0.41786999 475:0.17328 476:0.70352697 477:0.232492 478:0.19879 479:0.63319898 480:0.37485701 481:0.57267702 482:0.31508201 483:0.44975001 484:0.37758601 485:0.31334201 486:0.29243901 487:0.449435 488:0.35739899 489:0.496209 490:0.55536199 491:0.91501701 492:0.485268 493:0.20193 494:0.151334 495:0.35347 496:0.28110701 497:0.14726 498:0.33485001 499:0.349621 500:0.17846 501:0.416774 502:0.211299 503:0.293742 504:0.14979801 505:0.32535601 506:0.26918 507:0.230067 508:0.316302 509:0.358309 510:0.307657 511:0.339479 512:0.34067699 513:0.580244 514:0.19250999 515:0.28929201 516:0.188118 517:0.58188099 518:0.355526 519:0.373171 520:0.421911 521:0.36574301 522:0.37321901 523:0.235084 524:0.43618301 525:0.060390402 526:0.167925 527:0.139162 528:0.113942 529:0.229388 530:0.32481101 531:0.36814001 532:0.161028 533:0.65258199 534:0.34042701 535:0.37715599 536:0.0962428 537:0.305363 538:0.182586 539:0.23550799 540:0.329743 541:0.380537 542:0.23805299 543:0.33469701 544:0.309526 545:0.24675199 546:0.150084 547:0.21216001 548:0.420809 549:0.365235 550:0.266175 551:0.402343 553:0.445811 554:0.517515 555:0.277592 556:0.14018799 557:0.35673499 558:0.52480698 559:0.55076599 560:0.461211 561:0.181073 562:0.47834799 563:0.43256101 564:0.23925801 565:0.320521 566:0.38028499 567:0.209168 568:0.204358 569:0.101798 570:0.372096 571:0.33191499 572:0.120175 573:0.38550901 574:0.26136899 575:0.286349 576:0.133999 577:0.20702501 578:0.40131199 579:0.29775301 580:0.244674 581:0.262398 582:0.27539599 583:0.46373999 584:0.38332701 585:0.28473899 586:0.37808499 587:0.39614901 588:0.592875 589:0.74912298 590:0.53495699 591:0.32403401 592:0.475077 593:0.382889 594:0.20610499 595:0.371068 596:0.482133 597:0.30687299 598:0.54506099 599:0.337464 600:0.52438402 601:0.322088 602:0.235015 603:0.47576001 604:0.14088801 605:0.512631 606:0.212442 607:0.32975501 608:0.450008 609:0.256883 610:0.358248 611:0.47806901 612:0.153008 613:0.26560599 614:0.272313 615:0.32990801 616:0.199673 617:0.52135599 618:0.31522599 619:0.35406199 620:0.25056699 621:0.329694 622:0.220117 623:0.58107197 624:0.199044 625:0.23843201 626:0.256823 627:0.58044201 628:0.232923 629:0.28661999 630:0.204239 631:0.38034099 632:0.047458 633:0.38461301 634:0.101761 635:0.35328799 636:0.409114 637:0.29067901 638:0.195748 639:0.123986 640:0.32386199 641:0.40677199 643:0.202949 644:0.193214 645:0.38564801 646:0.308209 647:0.51761198 648:0.51523799 649:0.30659899 650:0.103769 651:0.29084 652:0.35517901 653:0.26276699 654:0.154864 655:0.228891 656:0.114319 657:0.154294 658:0.304225 659:0.35896701 660:0.231628 661:0.480508 662:0.21124101 663:0.18772 664:0.25031 665:0.55105901 666:0.27429199 667:0.283829 668:0.21488699 669:0.189107 670:0.129219 671:0.28139499 672:0.27174899 673:0.16527 674:0.49048501 675:0.262079 676:0.12551101 677:0.222368 678:0.27386999 679:0.42788401 680:0.109423 681:0.25015101 682:0.36675799 683:0.124516 684:0.18665899 685:0.42870599 686:0.66370702 687:0.27036801 688:0.52405101 689:0.554591 690:0.204275 691:0.566131 692:0.185605 693:0.37202799 694:0.35992599 695:0.17755499 696:0.217547 697:0.360854 698:0.128489 699:0.092199199 700:0.34562701 701:0.40218699 702:0.18844301 703:0.44930699 704:0.448915 705:0.65573001 706:0.29568699 707:0.38267899 708:0.089821398 709:0.23703501 710:0.336833 711:0.163013 712:0.32221901 713:0.17705999 714:0.24042401 715:0.36982 716:0.36057699 717:0.216536 718:0.51235199 719:0.40037799
SV
10 6:0.31414454 15:0.16403344 29:0.16268445 31:0.097096876 41:0.15626908 63:0.062056551 74:0.25171258 75:0.05174407 81:0.24287048 142:0.055268616 172:0.26941024 174:0.21574859 179:0.12143499 180:0.24850934 186:0.41371592 187:0.18952329 205:0.43853461 229:0.18987932 255:0.35591608 308:0.27793887 318:0.2165784 408:0.18462194 409:0.16353271 465:0.25796593 480:0.1946457 519:0.31784624 664:0.44801244 679:0.87497546 720:0.45264162 768:0.60036903 922:0.27804603 977:0.77188713 1018:0.24295283 1305:0.46991456 1581:0.36292788 1677:0.7144491 1817:0.29459087 2162:0.77497618 2314:0.5060589 2358:1 2419:0.67742603 3266:0.47557161 3374:0.28488775 8311:0.83970749 
10 6:0.46300468 11:0.07208641 15:0.24176151 26:0.051444863 27:0.039952647 31:0.095404821 63:0.091462684 67:0.087994697 75:0.050842242 81:0.23863751 92:0.098194708 94:0.089354093 97:0.084444843 142:0.033940745 153:0.1089539 173:0.080407648 174:0.42397775 176:0.35398529 185:0.14451777 198:0.15380735 199:0.10652191 205:0.21544541 208:0.068595425 209:0.11497711 215:0.262363 219:0.14130942 226:0.14110075 229:0.093285047 284:0.14055812 292:0.20361354 308:0.13654751 327:0.12226982 346:0.34297677 355:0.24895012 408:0.090702243 412:0.11804836 427:0.14201388 432:0.12228458 436:0.10652173 440:0.10707981 483:0.10521334 505:0.10774997 508:0.11954778 515:0.12171542 571:0.1158863 696:0.49449543 732:0.35895508 764:0.12266961 840:0.24283629 852:0.29694406 863:0.16063704 881:0.26280011 947:0.24250192 998:0.12001798 1235:0.20423291 1526:0.18056457 1552:0.2544476 1717:0.71467381 1936:0.22425899 1960:0.58105088 1984:0.46388062 2055:0.24447863 2387:0.2457767 2393:0.17967234 2657:0.64459616 2771:0.12923174 3253:1 4326:0.68050599 4687:0.59556026 6813:0.4125368 7903:1 7909:1 8317:0.36450604 
10 6:0.079159746 12:0.13965565 26:0.10554606 27:0.040983916 28:0.13646528 31:0.048933769 41:0.078754941 63:0.031274563 64:0.12702266 67:0.45133178 83:0.039579877 85:0.062659854 110:0.17508982 142:0.01392678 153:0.11176679 162:0.086633408 185:0.14824829 232:0.1261137 268:0.56305319 275:0.10671337 287:1 306:0.23702586 394:0.19709573 427:0.1456803 437:0.10394406 485:0.11041513 505:0.11053185 575:0.18222415 643:0.40085341 681:0.2186935 683:0.48557935 772:0.28031008 780:0.18560034 801:0.2287115 858:0.13671675 876:0.24086212 1045:0.14446596 1047:0.14569569 1128:0.62643268 1159:0.44114058 1215:0.24339163 1242:0.31524019 1373:0.39238179 1410:0.4476615 1431:0.10150207 1509:0.31274988 1688:0.47430489 1782:0.32216071 1872:0.87503772 1880:0.34306564 1969:0.70260312 2021:0.18162277 2024:0.15680021 2026:0.21969485 2160:0.54120709 2275:0.22359256 2301:0.3158746 2395:0.20915721 2410:0.54082052 2694:1 2949:0.34064393 3793:0.40816627 4055:0.42368353 4107:0.6375668 4130:1 4474:0.37128372 4923:1 5076:0.40633905 5644:1 5686:0.20127597 5975:1 7600:1 
10 6:0.18813553 11:0.043936982 27:0.04870254 28:0.16216556 29:0.097428882 31:0.23259847 63:0.037164646 75:0.030988431 83:0.047033933 96:0.12893578 142:0.016549646 174:0.25841577 180:0.14882759 185:0.17616814 308:0.16645268 455:0.15984583 457:0.12970802 480:0.11656978 496:0.17722219 574:0.34038926 609:0.1637765 886:0.20755864 987:0.20122847 1010:0.29704623 1154:0.48195288 1331:0.17642479 1497:0.35031932 1649:0.44940462 2240:0.40807292 2369:0.34122742 3708:1 4234:0.43779767 9162:1 9274:1 
10 2:0.046980419 6:0.42381005 11:0.158362 15:0.17703695 26:0.056508036 27:0.087769189 28:0.14612322 29:0.35116229 40:0.13182987 63:0.20092814 72:0.085383378 75:0.16753813 80:0.096032868 86:0.086554869 88:0.23549515 96:0.1161806 98:0.095903704 103:0.50239318 107:0.50239388 114:0.070773732 142:0.1043872 150:0.42702788 173:0.088321317 192:0.26358649 204:0.10177669 205:0.11832453 209:0.25258589 218:0.11221568 227:0.094728541 229:0.10246604 252:0.23031848 255:0.19206541 320:0.18315323 322:0.72491145 346:0.25115441 357:0.091565119 385:0.15469037 415:0.2350126 473:0.18592487 477:0.24619514 499:0.11404836 513:0.069039405 530:0.13548556 546:0.30816808 557:0.14123061 571:0.25458326 582:0.16395446 609:0.14757497 717:0.25053479 737:0.13619397 764:0.1347426 799:0.12044103 1001:0.1395642 1013:0.28268584 1036:0.25283582 1080:0.31553222 1140:0.11345049 1232:0.41653837 1314:0.19595525 1466:0.5705232 1509:0.33488478 1805:0.14612346 2024:0.16789773 2161:0.78679067 2223:0.29613427 2275:0.23941699 2298:0.93901282 2629:0.55697991 2647:0.70296862 2830:1 3502:0.23185949 4189:0.42643757 5392:1 7546:1 8947:1 
4.729328845240076 6:0.41608163 15:0.1448402 28:0.47819499 29:0.28729837 31:0.17147182 57:0.17140973 60:0.16457376 63:0.054795529 73:0.18729655 75:0.091379377 83:0.1386941 117:1 142:0.048801632 144:0.18406345 158:0.28004866 159:0.20108601 172:0.23788716 297:0.7698223 337:0.23386193 340:0.7133427 360:0.45257277 365:0.42122561 425:0.15375935 451:0.20307509 457:0.19124192 533:0.16811375 565:0.29068143 574:0.25093565 850:0.27613555 876:0.42200877 963:0.13998112 998:0.21570935 1076:0.33185 1331:0.26012121 1479:0.37353448 1482:0.45313428 2239:0.26765831 2718:0.8327828 4160:0.61027409 5731:1 7095:1 
10 6:0.13248655 15:0.41507353 28:0.22839642 63:0.052343067 75:0.04364488 80:0.15010318 159:0.19208613 245:0.40949327 337:0.22339515 496:0.24960209 513:0.215823 527:0.57347839 530:0.21176929 850:0.2637769 1530:0.24664279 2156:0.52834081 2340:0.40970877 6684:1 9154:1 
10 6:0.37472096 15:0.13044238 17:0.11280003 28:0.43065935 29:0.25873973 31:0.15442672 57:0.1543707 60:0.1482144 63:0.049348538 73:0.16867827 75:0.082295745 83:0.12490735 117:0.9005958 142:0.043950519 144:0.16576656 158:0.25221046 159:0.18109701 172:0.21423985 199:0.17242173 297:0.69329728 337:0.21061483 340:0.6424324 351:0.18004656 360:0.40758548 365:0.37935397 425:0.13847403 436:0.17242097 451:0.18288849 457:0.1722313 533:0.15140289 565:0.26178628 574:0.22599123 850:0.24868631 876:0.3800589 963:0.12606636 998:0.19426682 1076:0.29886179 1331:0.23426397 1479:0.3364024 1482:0.40809157 2239:0.24105146 2679:0.74033416 2718:1 4160:0.54961143 5731:0.90059445 7095:0.90059594 
10 6:0.33378302 11:0.15590289 29:0.3457094 31:0.10316686 41:0.16603822 60:0.39606619 63:0.2637441 75:0.21991532 94:0.19324836 106:0.14168646 134:0.48218078 142:0.14680897 174:0.22923608 176:0.38278432 180:0.52808849 276:0.40576425 289:0.23255541 328:0.25852746 346:0.49450959 351:0.4811297 457:0.23012343 475:0.98579755 480:0.2068138 485:0.2327878 505:0.23303365 507:0.2449656 513:0.13593453 574:0.30195358 727:0.2946169 1045:0.1522883 1073:0.48121056 1424:0.38979371 1544:1 1746:0.61479657 1808:0.46806096 3956:1 5178:0.6257399 5491:1 
10 6:0.23772655 28:0.40982279 31:0.22043179 42:0.12124208 81:0.18378994 159:0.1723341 172:0.20387346 179:0.091894938 180:0.1880569 205:0.16592838 229:0.14368929 255:0.26933634 355:0.19173251 365:0.36099813 586:0.14595608 768:0.4543245 2340:0.36757964 9152:1 
10 6:0.43874434 29:0.15147341 31:0.27121682 37:0.14409097 59:0.16118824 142:0.077189573 176:0.16771817 274:0.23248424 307:0.41354575 327:0.23172641 415:0.40548989 422:0.3149801 493:0.40834941 515:0.23067591 643:0.37029057 720:0.42144913 824:0.65522429 912:0.31650108 1009:0.72633137 1047:0.26917349 1239:0.70835693 1430:0.50334644 1449:0.3962529 1639:0.31650043 1651:0.31649932 1751:0.26888429 2092:0.61321289 2261:0.85735596 2412:1 2480:0.44204341 2957:0.99478784 3369:0.89156954 3899:1 4212:0.83123681 4248:1 4812:1 5376:1 6299:1 7238:1 
10 6:0.28031117 11:0.065463664 15:0.14636725 26:0.09343721 29:0.14516346 31:0.086639721 33:0.14454618 37:0.13808862 47:0.21982895 60:0.16630873 63:0.16611958 75:0.18468517 92:0.17834682 97:0.15337368 134:0.20246745 142:0.036987077 174:0.1925126 180:0.44348979 242:0.22207384 345:0.22075192 346:0.20764436 457:0.19325786 547:0.52370381 574:0.25358095 873:0.32159219 1080:0.52173941 1248:0.34412788 1416:0.92092671 1936:0.40731144 2024:0.27762238 2223:0.48966573 2385:0.21000284 3219:0.77633644 4321:0.75848416 8187:1 8422:0.75848483 
10 6:0.43810149 28:0.068659389 29:0.24750248 31:0.024620014 42:0.32499649 48:0.11868361 64:0.19172595 81:0.061582447 82:0.044254165 94:0.046117197 97:0.043583475 100:0.13762374 142:0.028027856 162:0.043587544 175:0.19379993 176:0.18269745 178:0.11777181 198:0.15876528 199:0.38484459 226:0.072824661 242:0.12621134 284:0.14508874 289:0.055497625 319:0.20678345 367:0.39300725 377:0.099758326 398:0.15033309 409:0.041465649 433:0.11156384 436:0.054977656 493:0.11120487 506:0.10455531 514:0.41639501 518:0.061700693 640:0.072488286 644:0.2480959 656:0.21720011 671:0.05459017 706:0.17320376 712:0.071685715 749:0.49300589 808:0.10288273 876:0.2423687 880:0.17116973 1001:0.13115506 1009:0.065933472 1048:0.47207144 1218:0.46924063 1267:0.31908386 1288:0.33785868 1330:0.66721321 1430:0.13707517 1439:0.16981142 1449:0.21582146 1591:0.27519081 1639:0.086192012 1651:0.086191888 1687:0.48300136 1709:0.08998656 1738:0.2626233 1787:0.29074239 2023:0.55738281 2213:0.2081187 2264:0.19746239 2449:0.10960097 2866:0.24493187 2958:1 2979:0.21014082 3576:0.58625931 3645:0.89528024 4222:0.43904854 4496:0.26879012 4839:0.34636714 5211:0.25300558 5371:0.17977531 5414:0.14903731 5677:0.11205281 5678:0.33177046 5844:1 5880:0.34636643 6640:0.24395568 6668:0.49741119 6823:1 7209:1 7386:0.79173917 7388:0.25721102 7426:1 7695:0.90844773 8472:0.93486279 8738:1 9142:1 9600:1 
10 6:0.4125254 15:0.035900493 26:0.11459008 27:0.053394915 29:0.21363181 30:0.019125921 31:0.063752161 37:0.033869991 40:0.053466361 60:0.040791815 63:0.20372645 67:0.54880543 68:0.042504352 75:0.10192282 81:0.053154721 83:0.017188537 85:0.027211483 88:0.047754924 98:0.038895779 100:0.19798333 106:0.029185191 111:0.042658987 142:0.090720708 151:0.041479244 153:0.04853737 158:0.069413498 159:0.099683275 173:0.035820538 176:0.039423947 179:0.026577428 185:0.06438079 186:0.045272952 194:0.046046197 198:0.068519144 199:0.047453991 204:0.041277499 205:0.047989053 216:0.042344092 220:0.05421764 228:0.03453982 232:0.10953623 240:0.10570627 242:0.054469583 274:0.054647678 276:0.027860406 281:0.30647565 301:0.042880862 304:0.077333248 306:0.20586897 309:0.18268202 327:0.05446966 337:0.11593132 345:0.05414529 346:0.050930558 355:0.055451821 373:0.052853374 387:0.057369591 389:0.063670901 398:0.064879784 409:0.035791039 422:0.074038987 433:0.09629621 436:0.047454012 457:0.047401801 458:0.070925477 459:0.25624075 475:0.10152932 493:0.19197295 495:0.067692874 506:0.090247047 508:0.053256698 513:0.02800029 527:0.29760781 530:0.054949185 549:0.063476393 550:0.066455903 553:0.18676838 561:0.10625383 580:0.080291324 586:0.084425465 591:0.070454954 599:0.12064872 609:0.059852153 617:0.058381799 625:0.10123473 643:0.087040096 703:0.069448951 706:0.074750332 712:0.12375123 714:0.093454063 726:0.060336418 730:0.062951309 733:0.053912391 749:0.34043184 772:0.060865829 800:0.073012095 804:0.14865752 829:0.050163513 850:0.13688752 880:0.073872549 912:0.14879314 915:0.19015238 947:0.036010575 969:0.20211335 984:0.064062652 1005:0.078605136 1008:0.205781 1009:0.28455196 1021:0.19936789 1045:0.031368919 1094:0.056813117 1134:0.075405619 1138:0.093846577 1169:0.26170924 1197:0.15584469 1215:0.1056988 1225:0.046098314 1227:0.22626956 1305:0.051422896 1319:0.18204589 1330:0.19196851 1339:0.058151985 1373:0.085200912 1382:0.27041473 1407:0.16831604 1431:0.044079852 1489:0.097074874 1526:0.32175533 1551:0.12064874 1639:0.14879323 1651:0.14879301 1676:0.074432358 1689:0.32247877 1717:0.795944 1749:0.32134076 1784:0.184519 1787:0.25095422 1795:0.15769603 1802:0.48417288 1815:0.19327504 1828:0.054469683 1843:0.11687856 1849:0.34127227 1910:0.1899468 1928:0.13717657 1984:0.20665236 1989:0.22011151 1995:0.28975817 2041:0.15722811 2076:0.15134154 2078:0.1280244 2121:0.054835473 2153:0.078605086 2178:0.11831128 2253:0.42999159 2264:0.056813232 2322:0.43720197 2351:0.15721042 2412:0.23505934 2540:0.29960757 2577:0.063253883 2616:0.25555161 2703:0.40317342 2864:0.097850145 2882:0.3419762 2952:0.34197828 3051:0.12303008 3093:0.26985734 3253:0.82733245 3447:0.55355818 3613:0.32134067 4248:0.23505918 4323:0.22955125 4473:0.20237003 4793:1 4870:0.67387464 4923:0.434275 5794:0.49543094 5882:0.31161359 6253:0.41163656 6499:0.80180164 6523:0.30077088 6682:0.49211905 6706:0.31975514 6805:1 8231:1 8766:0.23753138 8875:0.53796852 8997:1 9593:0.58155368 
10 6:0.13495312 15:0.2818676 31:0.083423562 67:0.15388819 80:0.15289772 142:0.035614037 159:0.19566243 174:0.18536639 268:0.38396299 316:0.22577729 346:0.19993638 355:0.21768628 408:0.15862312 502:0.27842914 659:0.34796791 757:0.17335517 856:0.32078221 884:0.66748003 1067:0.18507164 1080:0.25118528 1277:0.60746606 1411:0.63800023 1681:0.53256339 2282:0.91786699 2834:0.22019455 4234:0.31403871 4315:0.56431799 4604:0.82919104 5269:1 5536:0.61298864 5793:1 5796:1 8129:0.70611909 8421:0.56658616 9139:1 
10 6:0.39664582 29:0.30811253 65:0.47141291 78:0.33287279 85:0.078492267 91:0.14387158 132:0.3068225 151:0.23929526 162:0.10852317 183:0.42120913 186:0.13059095 204:0.11906618 216:0.12214212 226:0.18131655 271:0.14742921 275:0.13367731 280:0.14287818 288:0.4576627 295:0.13520077 306:0.29691625 322:0.70671612 325:0.34011203 333:0.24571576 335:0.39918795 337:0.16720318 351:0.14293542 377:0.24837607 382:0.17348896 400:0.41412219 411:0.20540797 424:0.14988127 471:0.26256276 479:0.12526725 505:0.13846033 506:0.13015937 534:0.14022037 546:0.36051875 574:0.17941034 629:0.26686973 641:0.12182451 644:0.30885133 649:0.5469392 663:0.93669824 712:0.1784814 715:0.20895301 739:0.24413161 763:0.50840768 804:0.42880608 860:0.41277692 868:0.34372239 881:0.33770203 963:0.10008175 991:0.30116252 1056:0.17844868 1225:0.13297137 1519:1 1608:0.23597285 1690:0.39062384 1721:1 1827:0.24705735 2026:0.13760291 2050:0.24347208 2353:0.24413129 2380:1 2464:0.79837447 2644:1 2673:0.80855704 2815:0.25895469 3749:0.19217782 4244:0.3064081 4265:0.40356143 4534:1 4689:0.41202749 4757:0.30942453 4805:1 5247:0.15466966 5450:1 
10 6:0.31345577 15:0.10911592 27:0.054095943 28:0.18012449 60:0.37194635 75:0.034420466 85:0.082706731 86:0.21338956 108:0.14753803 117:0.30134198 142:0.027573612 174:0.14351691 176:0.11982441 180:0.33061891 200:0.20244652 202:0.10615044 215:0.35524121 256:0.33589737 284:0.19031663 295:0.28491917 308:0.55465899 332:0.21839249 408:0.36843352 496:0.19684852 507:0.15336488 528:0.60595483 565:0.65695539 574:0.18904309 685:0.16267605 848:0.19006682 897:0.82587232 1027:0.38038092 1076:1 1205:1 1472:0.43327051 2121:1 2575:0.46888272 4396:0.54923681 4778:0.36032797 4960:0.59386718 5364:0.91044378 6309:1 
10 2:0.046980419 6:0.42381005 11:0.158362 15:0.17703695 26:0.056508036 27:0.087769189 28:0.14612322 29:0.35116229 40:0.13182987 63:0.20092814 72:0.085383378 75:0.16753813 80:0.096032868 86:0.086554869 88:0.23549515 96:0.1161806 98:0.095903704 103:0.50239318 107:0.50239388 114:0.070773732 142:0.1043872 150:0.42702788 173:0.088321317 192:0.26358649 204:0.10177669 205:0.11832453 209:0.25258589 218:0.11221568 227:0.094728541 229:0.10246604 252:0.23031848 255:0.19206541 320:0.18315323 322:0.72491145 346:0.25115441 357:0.091565119 385:0.15469037 415:0.2350126 473:0.18592487 477:0.24619514 499:0.11404836 513:0.069039405 530:0.13548556 546:0.30816808 557:0.14123061 571:0.25458326 582:0.16395446 609:0.14757497 717:0.25053479 737:0.13619397 764:0.1347426 799:0.12044103 1001:0.1395642 1013:0.28268584 1036:0.25283582 1080:0.31553222 1140:0.11345049 1232:0.41653837 1314:0.19595525 1466:0.5705232 1509:0.33488478 1805:0.14612346 2024:0.16789773 2161:0.78679067 2223:0.29613427 2275:0.23941699 2298:0.93901282 2629:0.55697991 2647:0.70296862 2830:1 3502:0.23185949 4189:0.42643757 5392:1 7546:1 8947:1 
10 6:0.19800466 63:0.15645616 68:0.24481506 75:0.13045644 81:0.30616066 142:0.017417794 169:0.17033896 179:0.45924 189:0.2286241 204:0.23775045 229:0.23936068 346:0.29334899 387:0.33043701 579:0.49315705 582:0.38299759 631:0.44132764 781:0.32564293 856:0.94131217 946:0.87800047 993:0.5123748 1199:1 1827:0.49332129 5728:1 8937:1 8940:1 
3.047752136164476 6:0.75118044 15:0.056033363 26:0.035770498 27:0.027779601 29:0.44458186 31:0.033168296 60:0.06366778 63:0.063595345 67:0.30592029 83:0.053655684 88:0.14907189 94:0.062129429 96:0.22063234 97:0.058715721 134:0.077510326 142:0.037759241 153:0.15151445 154:0.1214262 159:0.077792783 176:0.1845979 186:0.070662098 198:0.21388905 206:0.24613184 226:0.098109551 240:0.16498632 242:0.17003248 255:0.12158036 256:0.086245551 274:0.17058795 275:0.28932845 291:0.18764353 294:0.25450362 306:0.16066012 322:0.15296016 341:0.10676839 345:0.16902046 348:0.21848991 355:0.17309863 373:0.49496159 394:0.13359443 411:0.44458065 426:0.084111687 430:0.15908881 442:0.054363194 448:0.074454238 485:0.074841226 495:0.1056548 502:0.1107 505:0.074920393 509:0.087785961 543:0.11206703 553:0.29150695 580:0.25063676 593:0.085244806 644:0.16711781 655:0.11210271 663:0.16894737 709:0.12467568 726:0.28251945 767:0.14177025 772:0.37999841 792:0.14037804 799:0.15248215 856:0.2550782 862:0.10907616 895:0.1709856 903:0.16943323 909:0.14244988 933:0.12446044 1008:0.64236577 1015:0.17658069 1038:0.11249991 1045:0.048960775 1129:0.11210244 1155:0.11711119 1159:0.29901194 1164:0.2833409 1228:0.58246963 1313:0.11180409 1319:0.28413754 1380:0.25233642 1394:0.74734077 1424:0.12531883 1493:0.39036299 1576:0.36033672 1598:0.11258462 1665:0.084645429 1731:0.081038461 1751:0.19729776 1809:1 1873:0.29392529 1917:0.11196807 2018:0.12827137 2054:0.25592303 2055:0.16998971 2067:0.11710906 2090:0.28931855 2139:0.43001128 2201:0.57398479 2336:0.33997951 2449:0.14765495 2645:0.12890064 2768:0.69445495 3058:0.23896603 3428:0.6559477 4162:0.45582975 4322:0.88412936 4326:0.47316579 5226:0.24958605 5618:0.8018176 6996:1 9375:1 
10 111:0.58888679 553:0.85941573 1228:0.85860987 1380:0.74392814 3473:1 4322:0.8688539 
10 3:0.3680844 63:0.1727847 67:0.4986993 100:0.50374233 142:0.076942498 409:0.45532451 1005:1 1717:0.67505591 1802:0.68439363 2153:1 2351:1 
10 6:0.22540638 26:0.25044934 27:0.19450187 29:0.077819474 31:0.046446146 41:0.074750944 63:0.029684544 67:0.42838539 75:0.024751624 87:0.28110747 88:0.10437434 96:0.10298546 97:0.082221172 134:0.43415719 142:0.085922079 146:0.13252069 153:0.21216888 204:0.090217193 215:0.25545331 218:0.19894125 226:0.13738482 232:0.11970222 242:0.11904984 291:0.26276133 308:0.26590284 312:0.13187265 314:0.20795015 317:0.10934434 322:0.21419323 372:0.16976164 377:0.18819635 388:0.15849813 457:0.31080664 501:0.11839917 506:0.19724571 507:0.11028439 663:0.23658108 784:0.8058549 799:0.2135238 880:0.16145763 895:0.11971735 965:0.23930277 1005:0.51540347 1033:0.29532264 1201:0.4452869 1271:0.27678333 1416:0.49369241 1557:0.38858284 1731:0.11347977 1795:0.34466308 1904:0.11644065 2025:0.48401831 2246:0.33326828 2421:1 4124:0.81508232 4379:1 4416:0.64907409 5241:0.81508488 
10 6:0.31972906 15:0.33389899 31:0.098823083 60:0.18969512 63:0.063159783 75:0.052663914 80:0.18112173 98:0.18087814 142:0.056251007 144:0.42431999 174:0.21958398 176:0.18333397 179:0.12359391 180:0.50585303 256:0.2569651 317:0.23265148 408:0.1879042 827:0.33492224 916:0.20842966 1946:0.29939166 2741:1 3064:1 3236:0.58192829 4115:1 4295:1 4606:0.6569756 6347:0.48125688 7087:1 
10 6:0.19850974 15:0.13820452 16:0.72923048 29:0.068533823 31:0.12271191 42:0.067494142 96:0.27209058 138:0.076160878 174:0.090888188 180:0.10468927 186:0.087142827 199:0.091340761 267:0.11270584 284:0.12052601 346:0.098032174 355:0.10673553 367:0.1632368 414:0.10133071 439:0.10518723 506:0.086854891 513:0.053895771 586:0.081252103 684:0.20953558 731:0.14473517 733:0.20754384 781:0.21764956 795:0.260282 890:0.12452595 998:0.72039354 1017:0.16729105 1294:0.14209541 1378:0.14275582 1426:0.29365509 1485:0.13188743 2024:0.13106982 2375:0.26204661 2737:0.53195227 2837:0.1432693 2973:0.77183964 4033:0.13612187 4924:0.17974772 4955:1 5134:0.18504415 5870:0.29198352 5874:0.20418293 6334:0.40531064 7990:1 8110:1 8851:1 8910:0.17626994 
10 6:0.39830993 20:0.089919132 27:0.034370047 29:0.48129684 30:0.073867322 37:0.065405641 63:0.10491014 75:0.087476348 83:0.033192479 84:0.18564639 86:0.067789049 96:0.090991796 142:0.087594666 159:0.096248556 166:0.081548214 169:0.11421908 171:0.1275977 172:0.22772649 179:0.10264645 204:0.07971073 205:0.092670746 227:0.074190612 229:0.16050082 242:0.10518549 255:0.30084805 256:0.10670668 333:0.16449822 345:0.10455921 365:0.2016171 398:0.25057744 408:0.15605707 426:0.1040663 457:0.091536699 478:0.16539665 508:0.10284348 515:0.10470839 527:0.28735286 574:0.24021749 631:0.073982031 640:0.12082462 684:0.21021703 716:0.11133434 781:0.10917851 796:0.14480291 808:0.17148624 850:0.13217062 856:0.15779621 909:0.1762446 953:0.1307545 987:0.14200977 1027:0.24167568 1081:0.12554928 1271:0.24454948 1277:0.29881844 1314:0.15347046 1319:0.3515459 1335:0.23678153 1380:0.31219905 1545:0.3446701 1725:0.28881232 1835:0.45228825 1936:0.19292366 2280:0.14489196 2611:0.33400259 3236:0.60412286 3251:0.39212278 3666:0.53491845 3937:0.13731472 4131:1 4479:1 4606:0.27281389 5157:0.52020339 5256:0.19208814 5798:0.31896311 5903:1 6165:0.44813869 7277:0.24127755 7422:1 7592:0.13787408 7634:1 8002:0.33138466 8909:1 9656:1 9667:1 
10 6:0.36902876 26:0.24601806 27:0.19106009 31:0.11406058 33:0.190294 63:0.072898447 64:0.59215686 75:0.12156841 142:0.11361761 159:0.26751877 196:0.80274161 375:0.18063372 409:0.19210331 441:0.26586041 647:0.20336276 799:0.26218216 824:0.82666387 895:0.58799568 966:0.4062714 997:0.24839967 1190:0.84970055 1305:0.27600612 1433:0.57945876 1731:0.27867998 1916:0.78942075 2674:0.32668901 5215:0.6342371 8188:1 
7.765573630346243 6:0.20664824 15:0.21580566 28:0.35624503 60:0.2452081 159:0.29960964 180:0.32694552 355:1 365:0.62760913 513:0.33663251 908:0.31033418 921:0.68216257 1159:0.38386915 1294:0.44376321 1598:0.86720921 1652:0.95195762 2216:0.32284199 2744:0.44757112 3636:0.32815181 3803:0.23898476 5823:1 7912:0.86917207 8227:1 
10 6:0.17951728 11:0.75463369 31:0.11097127 60:0.21301391 63:0.0709238 75:0.059137809 80:0.20338662 98:0.20311311 118:0.95647953 142:0.015791447 172:0.3079062 179:0.27757493 180:0.28401876 346:0.26595828 527:0.77705117 535:0.28506508 641:0.44108987 679:1 727:0.3169022 1819:0.95295656 4292:0.91548013 5100:0.31595053 6511:1 8679:1 
10 6:0.38593117 15:0.26868938 26:0.25728772 28:0.22177174 29:0.26647972 80:0.14574923 94:0.14895994 96:0.17632758 102:0.15106091 158:0.25975564 192:0.40004576 286:0.19617811 306:0.3851946 312:0.22578744 373:0.19778412 405:0.4468034 414:0.19700122 499:0.34618343 731:0.28138545 1034:0.59776622 1124:0.19535122 3331:0.33936979 3611:0.23913476 7096:1 8857:1 9105:1 
10 4:0.05725946 6:0.46082595 15:0.16041565 26:0.10240562 27:0.03976458 28:0.13240442 29:0.2386449 37:0.075671125 63:0.091032033 68:0.094961763 75:0.075904463 80:0.087016915 96:0.21054631 106:0.065204726 138:0.26520344 142:0.067562226 151:0.092671749 162:0.084055563 185:0.14383745 199:0.10602065 218:0.10168032 229:0.092845715 242:0.12169467 243:0.22704695 277:0.14432452 279:0.32116454 284:0.13989657 306:0.2299733 339:0.08423445 351:0.22141833 355:0.12388922 367:0.37894259 413:0.12340764 427:0.14134538 434:0.13267124 467:0.19123099 472:0.12007184 477:0.22308123 502:0.15845887 950:0.41340413 965:0.48923764 1010:0.2425314 1036:0.45819704 1242:0.10195325 1707:0.23254219 1739:0.69143791 2017:0.2795768 2076:0.33812228 4234:0.53617632 4997:0.33884484 5149:1 5730:0.44529329 6865:1 7229:0.74511442 7766:0.81660743 8470:1 8700:1 9104:1 
10 6:0.25842273 11:0.040234327 17:0.15558261 29:0.089218373 46:0.10703072 60:0.20442841 63:0.034032645 75:0.028377151 79:0.090723948 80:0.09759476 92:0.10961278 116:0.29349088 128:0.1953053 142:0.015154959 144:0.34295688 174:0.23663891 179:0.066596607 199:0.23781703 248:0.36919198 262:0.23273698 314:0.23840974 331:0.2265381 337:0.29049601 408:0.10124906 411:0.1784364 436:0.23781644 475:0.25440789 574:0.15585246 626:0.39985515 644:0.26829681 1109:0.11917401 1155:0.18801412 1296:0.18801422 1374:0.87043057 1379:0.19332714 1708:0.96597343 3284:0.42884344 5598:0.99516774 5868:0.99516068 6685:0.99516793 6687:0.99516793 6688:0.99516795 6689:0.99516795 6694:0.99516793 
10 6:0.25914158 15:0.13531309 17:0.11701195 26:0.17276113 31:0.16019291 41:0.12890821 63:0.10238242 67:0.73875418 96:0.17759875 100:0.14924415 106:0.11000206 142:0.1253768 175:0.21016356 176:0.29718561 274:0.20597301 473:0.28421247 493:0.36178378 553:0.23465101 703:0.26176089 720:0.37338954 749:0.32078032 771:0.68615081 947:0.13572767 1009:0.21450164 1489:0.18294286 1526:0.60636751 1557:0.67011125 1639:0.28041029 1651:0.28040969 1717:1 1802:0.40553352 1883:1 1984:0.77889614 2351:0.29627232 3253:0.47974003 4687:1 
10 6:0.25967675 11:0.040429678 17:0.15633783 29:0.089651401 46:0.10755043 60:0.20542102 63:0.034197899 75:0.028514844 79:0.091164614 80:0.098068369 92:0.11014507 116:0.19661124 128:0.19625345 142:0.015228545 144:0.45949502 174:0.23778771 179:0.066919973 199:0.23897149 248:0.37098451 262:0.23386693 314:0.23956738 331:0.22763806 337:0.29190652 408:0.10174083 411:0.17930277 436:0.23897103 475:0.25564289 574:0.15660886 626:0.40179813 644:0.26959951 1109:0.11975251 1155:0.18892702 1296:0.18892673 1374:0.8746561 1379:0.19426577 1708:0.97066522 3284:0.43092517 5598:1 5868:1 6685:1 6687:1 6688:1 6689:1 6694:1 
10 67:0.43901433 80:0.4361894 172:0.6603442 179:0.29764615 204:0.4622781 2211:0.80687767 5119:0.58780601 6759:1 7590:1 
10 6:0.14854885 15:0.31026409 33:0.15320194 60:0.17626757 80:0.1683012 140:0.083903163 180:0.47004877 327:0.23537182 331:0.39066286 431:0.18525773 448:0.2061306 609:0.2586306 672:0.482379 824:0.66553135 880:0.63843133 933:0.34457617 947:0.46682137 1018:0.6893041 1305:0.44441232 1806:0.40413941 1904:0.23021294 2198:0.52773116 3254:0.82623362 3925:0.73821556 4704:0.70227259 4842:1 5357:0.69455963 5864:1 6305:1 6307:0.35119537 7842:1 
10 60:0.53401009 180:0.71201523 947:0.94283893 1018:0.69609287 1305:0.67318484 3925:0.74548527 
10 6:0.4570623 15:0.15910579 28:0.26264682 29:0.31559514 31:0.094180399 60:0.18078311 98:0.51714113 117:0.2196986 142:0.05360827 172:0.26131734 205:0.21268052 256:0.24489246 308:0.26959012 317:0.22172126 360:0.74572325 425:0.33780596 560:0.49705018 565:0.95793415 574:0.27565091 592:0.39902584 768:0.58233495 916:0.19863709 1273:0.7516991 1277:0.68579174 1504:0.95793311 1599:0.63936016 1936:0.44276149 2161:0.47140062 2305:0.95793397 2396:0.95793252 2834:0.24858658 2928:0.41899629 3087:0.61050311 3098:0.9579361 3648:0.9579321 
10 6:0.10612478 11:0.049568481 31:0.1968085 67:0.12101502 80:0.12023601 146:0.09358948 154:0.24016725 179:0.1640932 186:0.27952309 205:0.14814604 245:0.32801341 265:0.13234973 513:0.43219577 530:0.33926498 586:0.13031408 664:0.30269624 697:0.19912153 703:0.21439439 804:0.45891832 856:0.25225739 1081:0.20070624 1309:0.40549815 1393:0.61204211 1502:1 1710:0.19547092 1817:0.19903799 1918:0.30372094 2103:0.7981477 2122:0.79814697 2196:0.76857369 2369:0.19248181 2510:0.86429812 2709:0.68543107 3578:0.52118086 4346:1 4871:0.31236657 
10 6:0.31604456 27:0.081813835 29:0.16366794 31:0.19536784 63:0.12486325 64:0.25356783 75:0.052056776 142:0.055602701 205:0.44118551 286:0.24097941 317:0.22996957 387:0.7911396 414:0.24199046 561:0.48842124 593:0.25105475 764:0.25120043 1949:0.80669323 2280:0.34489882 6109:0.9679329 6494:0.75059367 6497:0.73731089 7854:1 
1.584852127505929 6:0.54491376 11:0.33935633 29:0.18812743 31:0.22456498 60:0.21553085 80:0.41158044 96:0.24896492 118:0.58066753 142:0.015978043 159:0.26334832 208:0.16146065 292:0.47926739 308:0.32140705 365:0.55165137 399:0.39308869 411:0.37625402 473:0.39841974 500:0.6652303 505:0.25362371 643:0.45989435 644:0.56573539 667:0.38929072 1064:0.28843612 1135:0.57403425 1149:1 1155:0.39645171 1235:0.48072486 1248:0.89195458 1296:0.39645047 1469:0.2809484 1497:0.67643842 1665:0.28654629 1892:1 2542:1 4749:1 6072:0.87676442 6286:1 9380:1 
10 6:0.49726557 11:0.38710343 63:0.13097416 75:0.054604483 88:0.23025952 98:0.37508528 102:0.77855984 142:0.014580939 151:1 180:0.52449308 187:1 275:0.22345141 325:0.85278539 341:0.32983308 346:0.49114214 560:0.27038601 727:0.29260925 772:0.29347603 952:0.64140205 1215:0.50964822 1882:1 6813:0.88612643 7272:0.52342022 
10 6:0.41493051 15:0.43331885 29:0.14325205 33:0.28528563 41:0.1376028 49:0.62059495 63:0.16393193 67:0.31543274 75:0.1366897 94:0.16015314 97:0.30270877 102:0.32482448 103:0.81977534 107:0.54652009 142:0.036500016 198:0.55134995 226:0.25290084 252:0.56373309 319:0.35905193 324:0.19528216 408:0.16256909 417:0.59551261 434:0.23891641 453:0.55988371 477:0.40172779 507:0.20301347 527:0.59868713 571:0.20770771 867:0.1639202 882:0.60569614 1010:0.21837728 1604:1 1643:1 1786:0.38095922 1805:0.2384356 2240:1 2417:0.80847103 2581:0.59496731 3989:1 4069:1 4317:1 7959:0.80846806 
10 6:0.50158499 26:0.20063384 27:0.051937964 29:0.20780231 31:0.12402519 63:0.15853384 75:0.066094532 80:0.22731206 83:0.050158428 92:0.25530434 96:0.27500247 134:0.14491644 142:0.17649078 150:0.25269607 174:0.41337386 176:0.11504408 180:0.15871457 204:0.12045396 322:0.28598176 387:0.33482489 405:0.34841965 409:0.10444285 413:0.16118714 480:0.1243138 485:0.13992634 506:0.13167657 507:0.2944929 546:0.36472042 593:0.31875295 631:0.11179731 644:0.31245097 737:0.16118716 755:0.39601385 806:0.41814301 823:0.46107193 834:0.43843842 895:0.15984085 997:0.2701006 1122:0.74644653 1495:0.17003129 2248:0.31893875 8671:1 9097:1 9374:1 
3.288344155174003 6:0.34551735 28:0.19854805 29:0.11928701 63:0.045502561 68:0.1424004 75:0.037941035 81:0.17808285 96:0.15786279 142:0.010131272 179:0.089041445 186:0.15167674 204:0.55316416 256:0.18512659 262:0.31117515 299:0.19514503 308:0.20379688 337:0.19420054 387:0.57661192 404:0.18480952 413:0.18505645 437:0.30246518 561:0.35597966 643:0.58321548 678:0.28742432 737:0.18505616 1140:0.15415309 1482:0.18814318 1576:0.38673223 1614:1 2604:0.27400473 2737:0.92589282 3315:0.22231125 3502:0.31504372 3944:0.72725811 4293:1 6279:0.54728865 6695:0.64191515 7132:1 8855:0.64134041 9094:1 
4.090876212609113 6:0.21868182 31:0.27036425 60:0.25948617 63:0.086397128 75:0.07203979 97:0.23930497 142:0.019236645 144:0.29021659 174:0.30037147 180:0.69196435 308:0.38695646 345:0.34443457 455:0.37159788 717:0.64636367 1469:0.33824642 1665:0.34498374 4226:1 4508:1 4692:1 
10 6:0.32106386 26:0.21404256 27:0.083113407 31:0.099235507 59:0.17693131 60:0.19048698 63:0.063423436 67:0.18305591 142:0.070607161 153:0.22665757 204:0.19275617 240:0.4936215 256:0.25803768 319:0.41673954 331:0.42217712 373:0.74043558 408:0.18868832 411:0.66506727 423:0.25284508 437:0.21079387 625:0.47274275 643:0.40645582 644:1 979:0.84211393 1064:0.25492034 1155:0.35038505 1296:0.70076793 1387:0.70161004 1550:0.73205852 1576:0.53904263 2666:0.29972415 7263:1 
10 6:0.31777518 15:0.082964609 29:0.16456471 63:0.062773707 75:0.052341941 81:0.12283879 142:0.020965205 158:0.16041221 161:0.13129316 180:0.12569071 204:0.095390779 215:0.27010252 227:0.088784915 229:0.19207379 255:0.18001473 291:0.27782977 292:0.20962001 384:0.14054245 387:0.13257893 442:0.080491435 480:0.29534195 485:0.22162332 528:0.46072915 631:0.088535552 640:0.14459276 656:0.43324995 671:0.10889142 696:0.25454225 717:0.23481545 761:0.24770548 840:1 848:0.1445147 969:0.46707452 1242:0.10545724 1337:0.49002739 1359:0.12155074 1448:0.08864918 1449:0.21524995 1645:0.4288959 1685:0.49171501 1783:0.5383409 1822:0.17176011 2098:0.70401182 2146:1 2270:0.2001038 2639:0.84050545 2935:0.19173695 3188:0.97281134 3348:0.18966479 3593:0.19885697 4556:0.47878011 4716:1 6634:0.93768582 
10 6:0.31177741 20:0.046922855 29:0.10763885 31:0.064243417 63:0.082118484 75:0.068472118 117:0.14986377 142:0.045709966 173:0.10828957 189:0.11999702 229:0.62816253 252:0.14119558 255:0.23548943 295:0.14169707 297:0.14421041 317:0.30248704 320:0.44912343 345:0.1636878 355:0.16763791 360:0.3391217 400:0.10850514 408:0.24430766 438:0.39131429 478:0.25892852 480:0.12878591 494:0.73473902 499:0.27966683 507:0.15254383 535:0.16502986 574:0.18803072 586:0.51045665 623:0.15679383 647:0.11454217 659:0.26796697 697:0.3899915 856:0.24703099 960:0.19505475 993:0.8067866 1017:0.26274604 1027:0.37834386 1045:0.094832107 1226:0.17068115 1277:0.46780154 1380:0.1629165 1891:0.39907688 2024:0.20585759 2135:0.25491519 2142:0.19343516 2240:0.7513966 2611:0.52288272 2733:0.28896048 2781:0.78255169 2864:0.29581222 4487:0.90934881 4682:0.18917207 5842:0.4546743 6420:1 8739:1 
10 6:0.16534773 15:0.51802626 27:0.085606983 28:0.57009468 29:0.17125576 94:0.1914608 142:0.014545113 161:0.27326307 176:0.18962205 179:0.12783317 186:0.21775619 190:0.30232883 205:0.2308193 499:0.22247777 535:0.26256589 832:0.38641713 1001:0.2722517 1169:0.41959177 1294:0.35507464 1305:0.24733572 1804:1 1817:0.62022474 1946:0.30966125 2190:0.60593722 2924:0.4651985 3316:0.42649936 3735:0.55389692 4033:0.68029455 5038:1 6500:1 8924:1 8926:1 
10 31:0.25857712 67:0.47698811 153:0.59060224 186:0.55087895 294:0.39682119 543:0.87367077 1228:0.75681964 2018:1 2201:0.74579405 4322:0.76584933 
10 6:0.45030292 15:0.11756436 29:0.11659758 31:0.06959051 63:0.0889532 75:0.074171071 83:0.056287944 142:0.029708667 228:0.11310848 229:0.68044361 255:0.25508922 426:0.17647593 483:0.15349037 507:0.16523969 586:0.27646959 647:0.12407556 697:0.21122532 724:0.33679193 738:0.19071306 741:0.20914448 751:0.88267591 950:0.60594572 1017:0.2846144 1098:0.41059933 1395:0.17280602 1509:0.44477231 3473:0.23722216 3759:0.73713517 3795:0.83657833 3895:1 4020:0.57375403 5503:1 6661:0.95820445 7411:0.9582054 8360:1 8378:1 9082:1 
10 6:0.32650428 15:0.11365795 27:0.056347958 31:0.067278022 60:0.12914306 75:0.035853247 80:0.12330662 86:0.11113673 110:0.24072686 142:0.095738489 165:1 179:0.42070988 180:0.34438279 192:0.33844626 255:0.24661264 286:0.16597014 291:0.38061531 312:0.19102041 317:0.15838768 331:0.28622095 345:0.17141969 414:1 441:0.15681659 506:1 515:0.3433282 719:0.92392941 799:0.15464673 1140:0.14567081 1254:0.64286704 1785:0.34622722 5572:0.59842849 7708:0.44490871 
10 6:0.64293363 15:0.16785636 16:0.12652696 26:0.10715541 27:0.083217858 29:0.33295224 40:0.12499369 42:0.081975142 53:0.093216085 63:0.095254539 64:0.12895928 72:0.080955658 75:0.052950109 81:0.24853092 96:0.22031219 142:0.070695787 144:0.21331223 150:0.20244179 158:0.16227545 159:0.11651994 160:0.088592649 171:0.15447174 173:0.083741134 183:0.17068813 185:0.30101792 228:0.32298771 229:0.1943048 255:0.36421146 284:0.14638524 286:0.24511415 312:0.1410546 314:0.22242925 320:0.34731111 341:0.15991991 345:0.12658108 346:0.11906528 351:0.11584426 387:0.26823746 402:0.2230384 405:0.27912846 408:0.094462367 410:0.10198808 430:0.11914334 439:0.12775539 448:0.11151905 457:0.11081581 478:0.40046281 485:0.11209892 502:0.16580864 507:0.11796302 550:0.15536019 586:0.098684957 600:0.16828983 608:0.12307559 610:0.18241889 701:0.18137932 719:0.13645106 731:0.17578808 733:0.25207297 737:0.12913139 758:0.11364355 767:0.2123466 796:0.17530028 797:0.26251969 827:0.16837066 856:0.57309274 883:0.11919805 890:0.15124318 930:0.13328984 956:0.17936777 965:0.51193011 1037:0.13927788 1058:0.30707686 1124:0.12204057 1154:0.41175627 1190:0.3700944 1236:0.35391099 1266:0.14435097 1314:0.18579362 1319:0.42558667 1332:0.25269301 1335:0.28665122 1380:0.12598457 1472:0.66651386 1482:0.13128558 1547:0.34595516 1634:0.40738851 1658:0.70095633 1776:0.39279303 2248:0.51102076 2307:0.79487405 2736:0.19664806 2804:0.1492163 3014:0.75459216 3297:0.34954426 3676:0.8522726 5051:0.91300891 5114:0.70442927 6718:0.49300513 7703:0.97402338 
10 63:0.18118948 64:0.73590457 75:0.15107953 81:0.70912096 142:0.040342468 144:0.60863189 179:0.35455883 1658:1 3676:0.69478416 6718:0.9377753 
10 6:0.22994272 15:0.080044211 28:0.13213423 29:0.079385893 40:0.11920906 63:0.060564063 68:0.094767873 75:0.025249789 92:0.097533018 142:0.020227203 150:0.19307302 179:0.059257288 204:0.18406597 242:0.12144584 322:0.10925208 373:0.11784217 411:0.31754297 423:0.12072316 430:0.11362953 546:0.27866528 643:0.194066 644:0.23872855 685:0.11933447 719:0.26027155 733:0.12020337 801:0.22145325 834:0.3349897 965:0.48823849 1064:0.24342784 1124:0.23278522 1154:0.39270041 1155:0.16729377 1296:0.1672938 1614:0.16637547 2666:0.14310572 3930:0.22466633 5921:0.42623024 7421:1 7424:1 7582:1 9674:1 
10 6:0.52721331 12:0.46506163 26:0.35147387 27:0.090986033 29:0.18201661 63:0.13886175 67:0.60118416 88:0.24412633 110:0.38870703 142:0.077295382 174:0.24138634 185:0.32911753 206:0.8061532 232:0.27997779 268:1 373:0.27018948 382:0.30746413 409:0.18296551 437:0.23076013 457:0.24232067 465:0.57724029 496:0.33108672 557:0.292814 574:0.31795816 613:0.38647849 667:0.3766458 757:0.22574444 780:0.41204024 796:0.38332883 975:0.75673793 1005:0.40183329 1050:0.57406497 1128:0.69535218 1237:0.35808565 1319:0.93063346 1676:0.38050228 2114:0.5077492 2301:0.70125578 2946:0.58344424 5188:1 
10 232:0.60358545 327:0.60029657 339:0.41551483 733:0.59415502 800:0.80464924 2798:0.56990113 2799:0.59391203 4226:0.57749382 4685:1 
10 6:0.2541698 15:0.088477688 28:0.29211189 29:0.087749931 31:0.10474592 63:0.033472635 75:0.027910022 83:0.042361552 97:0.092713089 102:0.19897325 158:0.17107141 159:0.12283608 252:0.23021237 308:0.14991715 389:0.15691787 405:0.29425908 502:0.17479686 505:0.11829995 523:0.26679826 546:0.30802615 840:0.26661277 895:0.13499424 968:1 1018:0.65522722 1433:0.26606943 1599:0.35554445 2142:0.78846589 2163:0.3338841 2280:0.18491643 3767:0.89371112 5801:0.44305652 6634:1 9069:1 
10 6:0.084610164 15:0.044179867 23:0.057404672 27:0.021902938 29:0.043816582 33:0.043630209 59:0.09325361 63:0.016714004 68:0.052306571 75:0.013936481 100:0.14618536 102:0.39741769 132:0.13089922 140:0.023894678 142:0.011164316 146:0.037308093 162:0.046299127 174:0.058108687 196:0.27607728 198:0.084320827 199:0.058397859 205:0.059056117 218:0.05600714 240:0.13008458 274:0.067250475 276:0.034285563 351:0.060980448 355:0.20472065 363:0.1033832 367:0.10436406 372:0.38233833 381:0.11023901 386:0.043990307 398:0.23952766 408:0.049725187 423:0.066632546 431:0.052759307 434:0.073077666 448:0.058703761 493:0.11812261 496:0.07970203 502:0.087281998 510:0.078513086 523:0.13322131 530:0.067621475 539:0.10540194 546:0.15380787 567:0.13861393 574:0.076541599 580:0.1976156 664:0.24133075 676:0.21286659 712:0.076145412 717:0.12504295 730:0.077469277 735:0.050244702 848:0.076956176 860:0.35220539 880:1 927:0.20327377 933:0.098131218 947:0.088630505 968:0.24966676 1018:0.85066103 1021:0.24534578 1064:0.067179194 1094:0.069915472 1101:0.089011732 1117:0.36191408 1118:0.20857434 1129:0.17677558 1144:0.25254551 1184:0.27279908 1193:0.50786145 1201:0.2507196 1207:0.26843196 1245:0.27377328 1320:0.13322097 1331:0.079343583 1411:1 1424:0.098808123 1531:0.27979584 1544:0.084496123 1572:0.29559248 1579:0.23055374 1607:0.13524314 1675:0.25291348 1688:0.25348149 1689:0.39684854 1700:0.18866675 1785:0.2691638 1806:0.11509445 1846:0.21605798 1851:0.38616925 1904:0.26224947 2026:0.058705361 2195:0.54647218 2198:0.30058381 2210:0.25950834 2243:0.34453925 2395:0.11177936 2521:0.59309407 2608:0.25639586 2771:0.070848037 2814:0.33455358 2852:0.23727965 2965:0.24065041 3030:0.35220611 3074:0.31478874 3141:0.39770304 3153:0.38429475 3254:0.23530275 3414:0.64248877 3491:0.4035707 3925:0.77086333 4108:0.29654626 4649:0.35220506 4704:1 4737:0.15253606 4842:0.28478933 5357:0.39560585 5416:0.141831 5820:0.35812476 5864:0.2847892 6307:0.10001643 7266:0.25072015 7603:0.25518086 7842:0.85436761 8287:1 
10 6:0.25935056 27:0.067137585 31:0.080160915 57:0.16026347 65:0.30823784 75:0.042718603 111:0.16091578 117:0.56098455 118:0.13818389 132:0.40123753 142:0.022814134 144:0.17209432 187:0.15646574 199:0.17900349 203:0.1520828 204:0.31141032 229:0.15675956 248:0.18525907 264:0.22689755 274:0.2061386 297:0.17994067 327:0.20546692 360:0.21157211 408:0.15241925 411:0.26861598 574:0.23461811 715:0.27325185 781:0.42653537 819:0.258725 876:0.39456718 946:0.5750094 993:0.33555961 1014:0.31743818 1671:1 1781:0.41348657 2135:0.31807416 2240:0.37502739 2333:0.20120213 2365:0.23414731 3167:0.50447322 3825:0.36081046 4487:0.56732706 4682:0.94416966 5842:0.56732718 5883:1 6675:0.75613255 6991:0.94416851 7947:1 
10 6:0.32224978 41:0.16030078 75:0.053079051 81:0.49827297 83:0.080562511 142:0.028347174 179:0.12456806 187:0.19441294 204:0.38693559 205:0.44984778 245:0.49801069 351:0.23225261 710:0.34815472 739:0.39668469 882:0.35280282 1993:1 2135:0.39521684 2333:1 2365:0.29093347 3364:1 6678:1 7613:1 
10 6:0.34307263 27:0.059207248 29:0.11844351 31:0.35346218 33:0.11794005 36:1 63:0.045180737 88:0.15886046 114:0.095485244 142:0.030178968 172:0.19614593 174:0.31415593 180:0.36185905 185:0.21416691 199:0.15785919 206:0.52458672 218:0.15139706 229:0.13824297 308:0.60706741 457:0.31537075 496:0.21544785 506:0.15010663 507:0.16785588 561:0.35346188 586:0.14042372 757:0.14689915 772:0.20247439 882:0.25040028 1001:0.18829464 1003:0.45632647 1111:0.34131684 1448:0.12760865 1482:0.56043898 1685:0.23593789 2564:0.51312135 3341:1 4784:1 6674:0.95791586 6763:1 
10 6:0.34299663 20:0.038715991 27:0.044395581 29:0.17762576 31:0.053007387 57:0.10597613 59:0.094508737 60:0.10174983 65:0.20382564 75:0.028248207 80:0.097151182 81:0.13258784 109:0.18581204 117:0.49461037 132:0.26532278 142:0.015086101 179:0.066293896 186:0.11292773 199:0.23673596 203:0.10056632 204:0.20592353 225:0.098286749 229:0.10365902 248:0.24500919 274:0.13631152 275:0.11559661 312:0.15050175 327:0.13586733 345:0.1350589 360:0.13990446 377:0.2147815 405:0.29782287 408:0.40315548 411:0.17762518 439:0.13631158 530:0.1370634 571:0.12877393 655:0.17915559 681:0.23689811 697:0.16089084 767:0.22656816 781:0.1410255 796:0.18704096 819:0.17108479 993:0.66567859 1017:0.21679135 1235:0.22694548 1316:0.22232062 1351:0.76486106 1378:0.18499633 1781:0.27342215 1969:0.76109066 2135:0.42066141 2185:0.50818887 2240:0.61997635 2333:0.13304761 2365:0.15483204 4487:0.93787824 4682:0.78042927 5883:0.66125998 6499:1 6675:1 7609:0.46192279 
10 6:0.32362416 42:0.11003391 60:0.12800415 75:0.035536939 83:0.053937398 96:0.14786049 138:0.12416295 142:0.018978773 179:0.25019875 186:0.28413294 248:0.15411427 274:0.34296693 327:0.17092503 347:0.19068224 383:0.12682692 473:0.23662229 475:0.31859765 505:0.15062731 507:0.15833997 539:0.26876711 574:0.19517541 710:0.23309384 796:0.23530296 808:0.27866366 876:0.32823481 989:0.29834741 1059:0.19771617 1244:0.66755891 1363:0.2516051 1446:0.58167478 1499:0.54852279 1660:0.19659703 1827:0.268767 1844:0.2484707 1943:0.23289082 2050:0.26486676 2433:0.70475246 2681:0.47795997 3627:1 3955:0.86425942 4244:1 5125:0.91390282 5198:1 8300:0.33376322 9092:1 9585:1 
10 6:0.3238189 15:0.1127231 28:0.37216023 29:0.22359207 57:0.13340078 60:0.12808064 75:0.0355583 142:0.018990107 154:0.24427404 258:0.34378565 274:0.17158642 309:0.28679915 322:0.30771094 345:0.17000938 367:0.26627966 398:0.20371475 478:0.26892852 493:0.30138464 521:0.18379845 571:0.16209813 647:0.23793113 676:0.5431197 710:0.23323339 784:0.14471159 800:0.22924885 993:0.27931441 1660:0.19671458 1664:0.59195294 1827:0.26892786 1943:0.23303039 2099:1 3167:0.41991366 6022:1 6872:1 9063:1 9086:1 
10 6:0.33867721 20:0.038228448 27:0.043836452 29:0.17538879 31:0.052339704 57:0.10464145 59:0.093318815 60:0.10046834 65:0.2012589 75:0.027892522 80:0.095927613 81:0.13091829 109:0.18347186 117:0.48838032 132:0.2619818 142:0.014896121 179:0.065459204 186:0.11150564 187:0.10216177 199:0.23375463 203:0.099299934 204:0.20333041 225:0.0970489 229:0.10235346 248:0.24192435 274:0.13459481 275:0.11414092 312:0.14860632 327:0.13415619 345:0.13335803 360:0.13814257 377:0.21207676 405:0.29407231 408:0.39807965 411:0.17538853 439:0.13459488 530:0.13533716 571:0.12715213 655:0.17689949 681:0.23391511 697:0.1588648 767:0.22371483 781:0.13924945 796:0.18468552 819:0.1689302 993:0.65729329 1017:0.2140614 1235:0.22408754 1316:0.21952082 1351:0.75522937 1378:0.18266673 1781:0.26997912 1969:0.7515054 2135:0.41536349 2185:0.5017893 2240:0.61217007 2333:0.13137216 2365:0.15288208 4487:0.92606754 4682:0.7706007 5842:0.37042855 5883:0.65293556 6499:0.98740476 6675:0.98740973 6991:0.61648062 7609:0.45610776 
10 31:0.22216955 75:0.11839658 117:0.51826549 142:0.031615175 179:0.27785787 377:0.90021489 1891:0.69005269 2135:0.8815578 2240:0.5197019 2365:0.64894741 3825:1 4487:0.78618651 4682:0.65420249 
10 6:0.20833611 27:0.14381815 29:0.21578028 56:0.07443099 64:0.22286968 81:0.21475767 83:0.034722948 142:0.06108885 160:0.15310733 162:0.076002085 172:0.23822516 186:0.18291332 229:0.083950178 334:0.10175901 439:0.11039432 507:0.10193292 527:0.30060074 540:0.3007233 586:0.085274483 631:0.077392919 667:0.14883715 671:0.19037368 677:0.2952844 713:0.24769739 733:0.2178179 890:0.13069064 913:0.21987906 946:0.30793757 1149:0.1911654 1380:0.1088642 1393:0.40050569 2528:0.28234974 3256:1 3298:0.20659463 3843:0.56579985 3982:0.77197242 4177:0.40873291 4711:1 5819:1 6132:0.90320798 6342:0.42600858 6453:1 8198:1 9075:1 9928:1 
10 31:0.24679643 59:0.44002306 75:0.13152067 142:0.03511967 377:1 1891:0.76654386 2135:0.97927791 2240:0.5773091 2365:0.72088161 4487:0.87333323 4682:0.72672018 
10 6:0.17050158 11:0.39818933 17:0.076988073 29:0.17659397 31:0.10539897 40:0.13259053 59:0.093960151 61:0.22946664 63:0.067362602 64:0.13679713 75:0.056168267 80:0.096586924 83:0.042625541 85:0.067481527 142:0.022497717 144:0.11313833 150:0.2147458 158:0.34427596 176:0.097766418 177:0.21045278 178:0.12604594 179:0.131818 186:0.1122718 199:0.11768086 209:0.12702151 268:0.1212764 278:0.16766923 285:0.53329742 304:0.2876668 322:0.12151588 337:0.28749659 355:0.13751432 377:0.21353449 386:0.088647317 418:0.49762539 455:0.14486429 478:0.21240103 502:0.1758863 575:0.19624688 580:0.1991127 634:0.59444386 731:0.18647224 739:0.20988563 793:0.46752839 829:0.12439999 874:0.26995932 1005:0.19493179 1143:0.47950405 1266:0.45937303 1403:0.41977159 1422:0.51083457 1429:0.497892 1443:0.40612682 1502:0.1606622 1827:0.21240077 1918:0.12199137 2376:0.14937761 2435:0.14915212 2777:1 2842:0.41740472 3376:0.59773273 3878:1 4088:0.21350876 4091:1 4393:1 4537:0.30138713 4748:1 5631:1 6401:1 6402:1 8136:1 
10 6:0.25385313 15:0.26510294 17:0.2292478 29:0.26292287 60:0.60244367 98:0.28722144 102:0.59617824 144:0.33689348 186:0.33431334 208:0.22565495 224:0.6831887 226:0.46416997 252:0.68977745 387:0.42363884 437:1 515:0.40040166 713:0.90543889 812:0.90183602 852:0.48841936 953:1 1449:0.68780279 1620:0.43947362 1690:1 2896:1 3052:1 
10 6:0.48904154 15:0.34047628 27:0.16879697 28:0.28102346 42:0.16627668 56:0.17471683 60:0.19343191 63:0.064403959 75:0.053701371 80:0.36937983 142:0.043019317 144:0.21633915 179:0.1260286 205:0.22756112 229:0.19706176 317:0.23723473 398:0.30765697 409:0.16971862 410:0.20687053 413:0.26192774 508:0.25254093 608:0.49928668 701:0.36790597 719:0.5535494 733:0.25565019 797:0.53249096 890:0.30677867 956:0.36382535 1266:0.29279855 2736:0.39887706 2804:0.3026674 3676:0.49392326 6342:1 6718:1 
10 6:0.41202981 26:0.091562023 29:0.42675066 31:0.084900924 41:0.1366408 59:0.30274576 79:0.14465082 100:0.31639249 111:0.1704311 117:0.19805225 132:0.42496364 142:0.036244777 187:0.16571784 199:0.37917649 204:0.16491237 218:0.18182688 242:0.43523251 248:0.19621302 274:0.65498349 299:0.2327109 309:0.3649256 337:0.23158433 398:0.25920833 408:0.16143224 462:0.28213897 507:0.20159388 539:0.34218668 574:0.74547479 643:0.34774301 655:0.28695056 658:0.52740241 710:0.29676814 819:0.54804892 851:0.22724126 862:0.27920366 1009:0.22736835 1011:0.40063345 1027:1 1042:0.24720507 1064:0.21809711 1476:0.4760711 1581:0.31734105 1591:0.4744898 1602:0.37896791 2135:0.33688381 2240:0.19860192 2365:0.24799155 4487:0.30043823 4682:1 5842:0.60087595 6991:1 
10 6:0.12011477 15:0.12543799 29:0.12440621 59:0.1323852 63:0.047455215 68:0.14851139 75:0.03956916 102:0.56418322 142:0.010566071 180:0.19003728 196:0.39192588 274:0.19094104 372:0.54277697 381:0.15649826 473:0.26347038 493:0.33538058 523:0.75649978 664:0.34259957 673:0.46410661 712:0.21619581 767:0.31736966 860:1 880:0.51622881 927:0.57714527 947:0.12582221 1018:0.74315142 1117:0.51378226 1118:0.74024308 1129:0.25095507 1193:0.48064895 1201:0.71185498 1245:0.38865536 1327:0.54633124 1411:0.56785084 1531:0.79441026 1846:0.61344245 1904:0.18614817 2210:0.73681025 2965:0.68326606 3030:1 3925:0.39794053 4108:0.84197071 4649:1 5109:1 5864:0.80858837 
10 59:0.57403463 100:0.59990968 242:0.82524108 274:0.82793892 574:0.9423268 658:1 1891:1 4682:0.94804606 
10 3:0.3596931 31:0.52836872 63:0.16884554 67:0.48732982 142:0.037594024 703:0.86337184 947:0.44767497 1526:1 1717:0.65966622 3253:0.79116987 
10 6:0.2257373 15:0.11787035 26:0.30098356 27:0.17530892 29:0.11690102 41:0.11229149 63:0.044592365 64:0.54333873 94:0.13069349 97:0.12351295 134:0.32609856 142:0.15885819 166:0.13864907 176:0.12943835 178:0.33375879 192:0.35098954 198:0.22496549 199:0.15580369 204:0.54209869 218:0.14942555 226:0.2063804 283:0.2304085 317:0.16425796 327:0.17883723 356:0.13949258 436:0.15580339 499:0.30373176 550:0.21819104 582:0.21832018 599:0.19806023 834:0.49329555 886:0.24904214 1045:0.10299238 1613:0.35771757 2246:0.50063769 9067:1 
10 6:0.27998658 27:0.072480037 42:0.28558973 57:0.17301595 64:0.44927628 65:0.6655303 68:0.17308965 81:0.2164622 137:0.22502463 142:0.01231472 148:0.24178302 229:0.16923297 245:0.4326976 248:1 314:0.38745723 319:0.36342122 351:0.20179296 415:0.38814783 457:0.19303369 478:0.34879017 574:0.25328674 582:0.27078753 586:0.17190262 647:0.77147168 720:0.40342439 1378:0.30202344 2393:0.32595191 2574:0.88763299 2682:0.62076501 2709:0.90417641 4492:0.62127549 5375:0.74602744 
10 6:0.30903502 26:0.61806804 27:0.15999865 31:0.19103486 63:0.12209417 64:0.49588863 94:0.17891953 97:0.16908934 134:0.22321337 142:0.33980815 150:0.77845164 166:0.18981064 176:0.70880433 198:0.30797787 226:0.28253491 229:0.18679011 283:0.31542933 317:0.22486903 387:0.25786371 496:0.29110765 582:0.29888052 643:0.39122686 696:0.99016304 834:0.67532139 883:0.22917589 966:0.34022261 997:0.62405078 1031:0.66717107 1045:0.28199373 1511:0.79155051 3408:1 3796:0.4668854 9392:1 
10 6:0.11354538 15:0.1185774 26:0.22709059 27:0.17636017 29:0.11760227 63:0.044859781 64:0.5465962 94:0.13147717 97:0.12425352 132:0.35132879 134:0.3280531 142:0.10987012 166:0.27896125 176:0.26042892 192:0.35309422 218:0.15032131 226:0.20761781 317:0.16524265 327:0.17990968 550:0.2194992 582:0.2196292 886:0.25053521 1045:0.10360983 6603:1 7389:1 8294:1 9053:1 
10 6:0.31032547 15:0.12963157 26:0.12413038 27:0.032133518 29:0.064282941 54:0.082667903 94:0.1437338 134:0.089658498 142:0.021838671 172:0.10645415 174:0.17050076 176:0.071176799 179:0.04798367 180:0.19639064 185:0.11623434 228:0.062359013 265:0.077402528 286:0.094647886 314:0.17177713 341:0.12350249 348:0.25273423 411:0.12856511 502:0.1280503 709:0.14421625 716:0.10408956 910:0.30350467 1317:0.27520168 1378:0.13390048 1472:0.25736637 1558:0.20790347 3519:0.29476774 4293:0.53888887 9056:1 9062:1 
2.352863797489448 6:0.1997511 15:0.20860337 28:0.34435524 29:0.20688793 31:0.12347949 80:0.22631165 134:0.28855796 142:0.01757141 159:0.28960997 176:0.22907578 199:0.27573646 264:0.34951116 337:0.33681526 365:0.60666359 436:0.2757358 499:0.53753635 521:0.34013501 539:0.49767313 685:0.3109987 884:0.32932395 963:0.20160552 1007:0.24868462 1159:0.37105824 1411:0.94433767 1892:0.36657423 2271:0.91770931 3593:1 3691:0.70365432 5100:0.70312677 7977:1 
10 6:0.2339423 13:0.076417985 25:0.047342107 26:0.062384554 27:0.048448309 28:0.24197845 29:0.19383998 30:0.026030973 31:0.057846013 42:0.047724894 63:0.12939686 64:0.075078285 67:0.37347229 68:0.057849618 81:0.072345601 83:0.046788579 85:0.037035823 88:0.064996253 100:0.053892557 111:0.058060181 116:0.053137838 132:0.14477123 142:0.049389671 174:0.064266597 185:0.087623993 186:0.12323655 189:0.054023785 190:0.17109926 196:0.050888934 218:0.061942403 227:0.052289698 228:0.047009898 242:0.074134892 252:0.063567368 274:0.14875455 275:0.063074249 286:0.21405295 299:0.07927699 309:0.12431858 314:0.12949527 317:0.13618238 331:0.12304698 346:0.069318119 347:0.082704124 351:0.067442806 355:0.075472107 357:0.050543512 373:0.071935109 382:0.081859188 399:0.10125631 426:0.22003899 430:0.20809067 475:0.13818444 493:0.13064082 508:0.072484522 534:0.066161613 541:0.16014869 543:0.097723608 574:0.08465312 576:0.21587399 586:0.11490591 591:0.095891481 594:0.13727955 597:0.086107612 609:0.081460822 641:0.057481836 643:0.11846474 653:0.11488011 655:0.097754826 679:0.086878452 772:0.082840448 803:0.26827113 872:0.17501052 987:0.10008878 998:0.58215549 1059:0.085755077 1081:0.088487674 1146:0.29449595 1159:0.086914056 1176:0.10007081 1227:0.15398023 1269:0.072031734 1319:0.24777093 1378:0.1009418 1431:0.059994096 1476:0.16218268 1491:0.1548567 1530:0.17420594 1566:0.90870133 1666:0.23992087 1744:0.062241348 1851:0.42709345 1865:0.22243208 2103:0.61580369 2122:0.61580284 2142:0.087086337 2157:0.46505777 2285:0.25344903 2316:0.25228924 2422:0.19787807 2570:0.4631108 2756:0.43999966 3496:0.48397434 3563:0.3198874 3578:0.22977946 4492:0.20764138 4817:0.29688012 4855:0.18675138 5164:0.32653822 5768:0.76111108 5956:0.87613401 7828:1 8182:0.85663339 
10 6:0.2349715 31:0.14525177 60:0.27881619 179:0.090830064 180:0.37175448 186:0.15472373 200:0.22763579 245:0.36312867 478:0.29271292 513:0.095693017 571:0.17643463 1817:0.22034674 3365:0.75232754 4047:0.49530324 4181:0.769888 5060:0.43234716 6239:0.71990545 6422:0.5019228 6661:1 6701:0.75232694 7411:1 7621:1 7805:0.75288473 7806:1 
10 6:0.16837354 15:0.17583519 63:0.066521288 75:0.055466934 142:0.029622459 159:0.24411679 174:0.46254222 180:0.26638904 229:0.2035406 255:0.38152347 312:0.29551894 365:0.51136691 373:0.25886738 405:0.58479537 413:0.27053894 427:0.30986336 467:0.41922272 506:0.22100788 507:0.24714062 535:0.26736948 1294:0.36157099 5849:0.96688548 6227:0.75362421 7808:1 7809:0.48344208 
10 6:0.27005887 26:0.45009865 27:0.069909882 31:0.027823518 41:0.0895593 43:0.85608053 63:0.14226058 67:0.1026499 73:0.060782566 75:0.044482364 83:0.045010007 117:0.064905212 134:0.26008234 142:0.087105889 144:0.1194668 150:0.5668917 153:0.063550065 174:0.24729473 185:0.084293209 189:0.051970114 192:0.13996806 209:0.067063132 232:0.071707656 286:0.068638872 345:0.070892607 453:0.18220115 475:0.39879559 538:0.27283966 592:0.058941815 823:0.51717981 954:0.27380968 966:0.39641826 997:0.30297025 1059:0.082495233 1277:0.40520499 1377:0.22343851 1471:0.12776469 1557:0.23278076 2091:0.63469181 4114:0.39363453 5667:1 7810:1 7811:0.82748953 8188:0.24393562 
10 6:0.21888133 11:0.076675812 15:0.057145342 27:0.1133229 28:0.18866685 29:0.17002574 30:0.030443869 31:0.067652438 63:0.08647614 75:0.090131899 83:0.02736016 92:0.06963073 94:0.063362055 97:0.23952295 103:0.32433147 107:0.21622137 118:0.11662154 134:0.23714427 142:0.048135443 174:0.1503231 176:0.18826039 179:0.042304981 180:0.17314908 199:0.1510717 229:0.066149246 274:0.086986127 308:0.096827284 314:0.1514484 319:0.14205321 324:0.15452056 337:0.18453558 345:0.086186804 396:0.27196305 441:0.078844584 455:0.092984224 475:0.32322137 504:0.24507335 547:0.20446644 553:0.099097153 574:0.099004095 597:0.10070518 633:0.093439374 678:0.13656006 693:0.11045621 717:0.16173892 743:0.22524517 755:0.21601519 757:0.21087384 764:0.086986189 804:0.23662833 823:0.12575169 829:0.079848511 834:0.23915601 913:0.17325604 965:0.17428182 1008:0.32755502 1009:0.090588118 1046:0.23952327 1223:0.18808561 1227:0.18008382 1306:0.55790291 1317:0.12131728 1558:0.18329937 1591:0.37809304 1838:0.099004201 2216:0.085488249 2229:0.41604882 2379:1 2528:0.22247967 3366:0.13117843 4140:0.38177287 4624:0.41498383 5149:0.23748762 9944:1 
10 6:0.22551721 31:0.13940777 42:0.2300318 60:0.53519828 180:0.71359837 346:0.33411044 457:0.31096146 535:0.71622618 574:0.4080247 608:0.34536274 946:1 993:0.58357009 1378:0.48653449 1711:1 2190:0.4132176 2682:1 8419:1 9664:1 
10 6:0.14480165 15:0.45365593 29:0.14997516 67:0.1651185 92:0.3685155 96:0.39695047 106:0.12293254 142:0.012737703 159:0.20994126 174:0.19889391 180:0.22909525 200:0.28056185 255:0.32811106 365:0.43977573 409:0.15075741 499:0.1948324 507:0.21254157 530:0.23145428 541:0.24781558 574:0.26198631 726:0.25414669 738:0.24530596 741:0.2690135 781:0.71443437 795:0.28479093 936:0.32337892 951:1 1235:0.38323568 2062:0.57006204 2415:1 3593:0.36245591 3614:0.62754726 5176:1 5686:0.36818172 6456:0.76399561 7255:1 8753:1 
10 3:0.36623884 63:0.34383699 67:0.49620007 142:0.076556309 144:0.5774897 823:1 7810:0.87888933 7811:1 
10 6:0.13192826 15:0.13777498 94:0.30552697 187:0.15918418 205:0.1841666 243:0.39000328 318:0.36381575 325:0.45249989 345:0.20779306 346:0.39090955 349:0.350755 365:0.40067763 505:0.18421329 511:0.63669327 539:0.32869542 586:0.16199903 902:0.57554101 963:0.13315277 987:0.28221896 1237:0.26881944 1620:0.45679245 1740:0.95083517 2215:0.27631968 3707:0.71004474 4241:0.27597305 4556:0.79508293 4623:0.33253348 5100:0.23219504 5798:0.63387963 8276:1 9066:1 9373:1 
10 6:0.22603498 15:0.236052 26:0.15069006 29:0.2341109 33:0.077705216 75:0.024820755 88:0.20933143 102:0.17694922 134:0.21768508 142:0.046394849 150:0.18979246 180:0.1192057 192:0.23430216 206:0.34562619 242:0.11938246 373:0.23167989 455:0.25606213 499:0.10137778 507:0.11059256 587:0.60854373 733:0.35448352 906:0.24121195 997:0.10143246 1064:0.11964581 1083:0.19949633 1374:0.76134405 5679:0.33359029 5978:0.88911827 6967:1 7817:1 
10 6:0.17826166 15:0.37232213 31:0.11019522 41:0.17734958 42:0.36365822 48:0.26560452 57:0.22031044 81:0.55126646 174:0.24485264 205:0.49769267 345:0.28076953 346:0.52819542 365:0.54139417 499:0.23985258 582:0.34480858 614:1 1635:0.95624824 1677:0.8108271 2537:1 2542:0.98140966 3199:1 6296:1 6702:1 8159:1 8679:0.99300637 
10 4:0.14065693 6:0.094334088 15:0.29554388 27:0.048840212 29:0.097704326 31:0.11662832 47:0.14795917 60:0.3358087 63:0.2236185 68:0.11663584 75:0.12430503 83:0.047167149 103:0.27956316 142:0.099578902 159:0.13677073 169:0.16230694 172:0.32360299 179:0.072931012 180:0.44774506 186:0.12423384 189:0.10892196 205:0.13168664 218:0.12488775 229:0.57018695 304:0.1061051 345:0.14858053 346:0.27951652 375:0.092350134 408:0.11087961 472:0.1474772 507:0.13846489 518:0.14614206 532:0.42779519 631:0.10512987 658:0.18112252 693:0.19041927 696:0.60450382 709:0.43839516 856:0.4484622 1149:0.2596769 1155:0.2058975 1248:0.23161979 1296:0.20589733 1472:0.391176 2223:0.32957612 3079:0.30884662 3572:1 5901:1 6126:1 6707:0.26300191 7848:1 7850:1 7859:1 
10 6:0.1604963 15:0.16760925 42:0.3274179 159:0.23269684 174:0.44090422 180:0.50785227 346:0.23777975 365:0.48744402 608:0.49157791 781:0.26395783 993:0.4153151 1080:0.29872891 1305:0.24007881 3586:0.38760622 6830:1 7592:1 7819:0.68560468 
10 6:0.21712854 15:0.15116749 27:0.037472024 28:0.124771 31:0.13422169 60:0.085881339 67:0.082531156 85:0.057290282 88:0.10054153 94:0.083806359 96:0.19840763 102:0.25496503 142:0.0063667028 159:0.10493515 179:0.055955127 180:0.11450862 199:0.09990835 205:0.10103439 255:0.16399983 317:0.10532941 355:0.11674673 365:0.2198132 388:0.152678 413:0.11629263 507:0.10623471 644:0.2254257 693:0.14609599 757:0.18594289 796:0.15787119 965:0.23051598 997:0.097435652 1124:0.10990659 1308:0.12004591 2024:0.14336372 3263:0.39700636 3576:0.26634497 3914:0.5804828 4519:1 5112:0.40356716 6109:0.44332665 7821:0.755273 8687:0.94409327 
10 6:0.24035494 26:0.080118474 31:0.074289948 41:0.47825239 63:0.047480104 77:0.151189 134:0.17360731 142:0.010571604 153:0.16968078 162:0.13152411 176:0.27564115 289:0.16746184 386:0.12496532 409:0.12512063 480:0.14892532 502:0.24794533 513:0.19577109 541:0.20567408 633:0.20521355 795:0.47272479 852:0.92490159 885:0.80153973 1005:0.5495865 2153:0.54958682 2730:0.5166725 2733:0.33414817 4623:0.60583229 6653:0.45437556 7374:1 8423:1 8874:1 9658:1 
10 6:0.36973968 11:0.069078769 12:0.13046078 26:0.14789545 28:0.12748008 29:0.076589906 33:0.076264264 40:0.2300208 60:0.087746267 63:0.11686192 75:0.09744174 80:0.08378045 88:0.10272467 94:0.085625981 108:0.20883517 110:0.16356171 142:0.071554105 150:0.18627271 205:0.10322831 255:0.16756084 256:0.11886271 259:0.16977898 304:0.083174924 322:0.10540417 345:0.11647103 346:0.32866507 354:0.2577079 406:0.21309721 469:0.36093364 565:0.1549836 592:0.096837144 631:0.16482078 720:0.21309808 997:0.19910279 1037:0.12815363 1045:0.067477135 1235:0.19571167 1731:0.11168634 2970:0.27786826 3412:0.56849243 4882:0.6265045 8188:0.40076942 9045:1 9047:1 
10 6:0.26656914 26:0.26656977 31:0.16478423 41:0.13260294 60:0.31631034 63:0.052658524 88:0.18515265 94:0.1543339 134:0.19254113 142:0.058622929 159:0.19324313 176:0.1528517 180:0.42174848 227:0.14895629 255:0.30201449 351:0.19212257 457:0.18378326 475:0.39364266 480:0.16516752 553:0.24137582 561:0.41196203 574:0.24114872 603:0.18943058 755:0.52615777 1045:0.12162193 4867:1 5514:0.30624735 8427:1 
10 6:0.30664887 15:0.16011931 27:0.039690818 28:0.13215973 31:0.14217016 60:0.090967192 67:0.087418564 85:0.060682999 88:0.10649556 94:0.088769241 96:0.3152352 102:0.18004259 142:0.0067437079 179:0.059268741 180:0.12128979 185:0.14357114 205:0.21403475 243:0.226627 388:0.16171913 413:0.24635864 507:0.11252548 644:0.23877462 693:0.1547475 757:0.19695395 965:0.24416621 997:0.1032056 1124:0.1164151 1308:0.12715483 3263:0.42051616 3576:0.28211698 3914:0.61485765 4519:0.21184367 5112:0.42746535 6109:0.23478999 7821:1 8687:1 
10 6:0.30222179 15:0.10520469 26:0.20148084 27:0.10431428 28:0.17366874 31:0.062274531 63:0.079601479 64:0.32330411 75:0.066373522 134:0.14552835 142:0.088617881 176:0.11552962 179:0.07788392 192:0.31327493 242:0.1596207 265:0.25127087 284:0.18349552 317:0.14660769 387:0.33623837 404:0.16165168 441:0.14515374 499:0.13554735 500:0.3689527 513:0.082053755 626:0.23381277 647:0.22206209 697:0.1890191 719:0.17104262 733:0.31597449 823:0.23151002 847:0.12601237 884:0.16608806 987:0.2155025 1007:0.25083978 1031:0.21748808 1122:0.37479997 1124:0.30595896 1573:0.14041881 2206:0.57738632 2683:0.17724289 2825:0.29367483 2948:0.29969368 4281:0.2696731 6560:1 6597:1 9934:1 
10 6:0.58235877 26:0.15529547 27:0.060301868 28:0.20078806 29:0.60316538 31:0.071999037 33:0.12012022 40:0.18114722 63:0.13804793 74:0.55994761 75:0.15347617 88:0.16179687 118:0.62057035 134:0.1682534 142:0.09221068 159:0.33773386 176:0.40070971 179:0.09004613 192:0.36219455 196:0.38003822 208:0.10353357 229:0.14079855 255:0.26391736 301:0.29056608 317:0.3390031 322:0.16601719 351:0.16788758 390:0.30096659 411:0.48253232 415:0.32293131 418:0.33993249 507:0.17095847 586:0.14301944 643:0.29489822 644:0.72553232 799:0.16549815 827:0.24401213 895:0.18558122 952:0.22534718 994:0.47401191 1064:0.1849539 1129:0.24334381 1155:0.25421627 1248:0.28597459 1296:0.50843255 1469:0.18015258 1665:0.55122404 1840:0.94296144 1918:1 1949:0.59457999 2171:0.2797033 2379:0.42569798 2467:1 3251:0.68797242 5910:1 6389:1 8126:1 
10 4:0.016940005 6:0.34083376 11:0.01061305 15:0.047458375 17:0.02051983 26:0.18177784 27:0.011764168 29:0.21180664 30:0.012641641 31:0.084276907 32:0.020581218 36:0.022077117 37:0.044774118 40:0.035339698 41:0.045211899 47:0.035638954 63:0.11670304 64:0.036460838 65:0.10802163 67:0.18137251 68:0.028094055 75:0.044911912 77:0.028585619 80:0.051487091 81:0.070267527 82:0.10099077 83:0.034083445 85:0.017986068 92:0.08674122 94:0.026310675 96:0.031144655 97:0.049730233 100:0.026172224 102:0.080045311 140:0.012833938 142:0.083949233 148:0.039243539 153:0.06416378 162:0.024867508 168:0.046568561 176:0.13028994 178:0.033595465 185:0.04255372 189:0.05247193 192:0.070659572 194:0.030435225 196:0.098854571 204:0.027283333 220:0.0358364 227:0.025393897 228:0.091319137 229:0.054936077 239:0.034759728 252:0.061741656 255:0.15446129 256:0.036523464 264:0.039758023 265:0.028337292 274:0.14448197 284:0.082775558 301:0.028342971 308:0.040206736 313:0.062289334 315:0.04735541 322:0.03238802 327:0.072005516 331:0.05975636 342:0.051338817 346:0.06732721 351:0.032752725 357:0.024545968 364:0.054587406 367:0.056054131 373:0.069868948 377:0.05691385 387:0.037919855 389:0.042084582 396:0.11293106 408:0.026707575 416:0.1260005 418:0.066316631 422:0.14681321 423:0.035788418 427:0.04181637 441:0.032739645 457:0.031331177 466:0.082079385 475:0.13421572 478:0.056612002 496:0.042808253 499:0.030573106 505:0.063454801 506:0.059650792 507:0.03335198 508:0.035201168 513:0.037014774 518:0.035201083 526:0.10256365 530:0.036319581 538:0.068868919 540:0.049197709 541:0.038887152 560:0.03706525 575:0.052306101 582:0.043951257 586:0.1953098 591:0.13970571 597:0.041817299 599:0.039872696 613:0.049970259 625:0.066913419 643:0.057531201 645:0.047347061 658:0.043626921 685:0.035376927 707:0.055651607 709:0.052797688 717:0.06716112 749:0.22501482 792:0.059447564 794:0.20434465 827:0.047603645 850:0.04523942 856:0.054010562 872:0.084991878 880:0.048827788 909:0.060325049 912:0.19669595 936:0.050744766 951:0.15691986 952:0.043962699 969:0.13359053 971:0.060477927 993:0.11759655 998:0.14135885 1009:0.41377637 1012:0.081966246 1017:0.057446511 1055:0.030469619 1129:0.047473555 1159:0.042208771 1176:0.097196451 1177:0.11779653 1227:0.22433631 1242:0.030162525 1245:0.073522326 1279:0.2833903 1283:0.10483698 1309:0.043410356 1312:0.046931371 1315:0.037327438 1319:0.12032697 1380:0.10685962 1411:0.10742084 1423:0.28250801 1437:0.12548136 1472:0.094222366 1500:0.038640218 1547:0.097812458 1598:0.047677535 1604:0.16428486 1630:1 1639:0.049174133 1643:0.16428413 1651:0.049174006 1690:0.089508951 1723:0.11279802 1750:0.1539739 1786:0.062585553 1795:0.10423238 1816:0.096377147 1855:0.12230361 2026:0.031530933 2103:0.85445154 2122:0.93989692 2175:0.19812289 2257:0.18228308 2271:0.10439199 2379:0.083048898 2383:0.10013631 2421:0.037802274 2540:0.13202106 2638:0.12019967 2646:0.30663477 2756:0.21368036 2838:0.3070235 2973:0.088347953 3073:0.20458566 3084:0.03535779 3103:0.23559214 3271:0.068802108 3337:0.28542487 3563:0.15534961 3578:0.1115898 3604:0.28815768 3694:0.070868641 3769:1 3969:0.1385642 4030:0.17614667 4047:0.095793742 4107:0.18300889 4109:0.47641671 4227:0.2167332 4297:0.17093861 4337:0.36908563 4368:1 4517:0.035218051 4609:1 4855:0.3627755 5035:0.16005974 5228:0.0569796 5361:0.04602953 5454:0.057439881 5709:0.55105653 5956:0.76587338 6197:0.41769761 6373:0.34452039 6457:0.033033563 6494:0.053964681 6497:0.1060194 6626:0.59829167 7006:1 7236:1 7324:0.55105653 7782:1 7828:0.62439278 8712:1 
10 6:0.25080989 15:0.15715548 26:0.033441452 29:0.41563444 37:0.04942202 38:0.071741744 41:0.049905579 63:0.05945446 67:0.11440048 68:0.062021096 75:0.033049711 81:0.077562117 84:0.1402784 85:0.079412788 88:0.41809826 111:0.062246967 132:0.31042035 140:0.028332543 142:0.026475522 146:0.044237059 153:0.28329875 162:0.054898125 172:0.086037884 176:0.057526247 179:0.038781174 180:0.07936297 186:0.06606109 189:0.057919064 199:0.13848754 200:0.097192093 204:0.1204625 209:0.074739834 218:0.066409095 219:0.091857136 226:0.091721677 227:0.056060255 229:0.36383493 240:0.15424387 252:0.20445324 274:0.079740316 275:0.13524503 276:0.040653071 278:0.098657416 296:0.12489584 309:0.13328227 322:0.14300078 323:0.078899132 325:0.08602545 337:0.084582018 355:0.32365626 365:0.15234668 369:0.1996216 373:0.15424435 381:0.065356477 382:0.17552356 387:0.083712212 394:0.12489601 414:0.15363377 415:0.13908004 426:0.078635077 430:0.074365062 436:0.13848701 457:0.069167352 475:0.14814867 493:0.14006092 505:0.070042042 507:0.22088565 530:0.080180164 539:0.1249775 543:0.10476998 553:0.09084253 570:0.19755089 574:0.090757135 594:0.14717839 631:0.05590273 643:0.25401406 644:0.31247322 657:0.21325782 672:0.16289039 673:0.19381921 678:0.12518458 772:0.088813751 789:0.24838471 799:0.071276891 814:0.10768314 822:0.46810104 851:0.082995838 858:0.086634976 872:0.1876298 882:0.10983602 917:0.11975726 932:0.36189867 952:0.097052629 953:0.39520462 969:0.29491765 1057:0.094428995 1133:0.087111186 1155:0.10948586 1193:0.20072773 1201:0.1486421 1227:0.16508328 1228:0.453787 1284:0.24408873 1294:0.10771987 1296:0.21897181 1394:0.34934031 1464:0.16422923 1518:0.23852939 1528:0.27087269 1543:0.12524258 1551:0.088023799 1627:0.1771042 1746:0.18478652 1783:0.33991652 1795:0.69031818 1838:0.090757289 1880:0.43478934 1969:0.4452278 1985:0.40145393 2007:0.35858717 2067:0.21896805 2076:0.22083309 2139:0.40201308 2185:0.29728411 2188:0.34527235 2348:0.96700918 2388:0.37401358 2398:0.33016659 2421:0.083453005 2427:0.49868394 2566:0.27047635 2666:0.093655887 2723:0.14824807 2740:0.23951475 2855:0.34120481 2873:0.10580634 2949:0.21586005 3320:0.33832684 3348:0.23951461 3518:0.38718853 3520:0.2395141 3553:1 3563:0.34295337 3570:0.26093819 3694:0.46935399 3735:0.16803721 3852:0.21060043 4269:1 4344:0.31368287 5086:0.47044761 5107:0.28676773 5190:0.26075182 6171:1 6302:0.68234193 6636:1 6990:0.65693706 7039:0.28337242 8348:1 8740:1 9049:1 
10 85:0.43750088 111:0.68586216 153:0.78037455 574:1 1228:1 1528:0.5969151 1838:1 
10 6:0.40084806 15:0.13953706 28:0.46068516 29:0.13838977 31:0.082596916 37:0.13164479 57:0.16513375 142:0.023507451 245:0.41298391 684:0.4231122 761:0.41661358 1043:0.23421 1067:0.18323779 1140:0.17883903 2354:1 2709:0.86298615 5414:1 
10 6:0.34828032 15:0.18185745 28:0.30020366 63:0.068799814 75:0.057366584 80:0.19729527 142:0.03063697 159:0.2524775 229:0.21051141 351:0.25101321 365:0.52887677 413:0.27980456 467:0.4335823 531:0.33615742 535:0.553055 3407:1 5849:1 6227:0.77943563 7808:0.68949908 7809:1 8743:1 
10 85:0.33155745 111:0.51977619 180:0.66269744 229:0.50634878 507:0.61481657 917:1 1528:0.45236908 2740:1 3348:1 3520:1 
10 6:0.28706265 31:0.059150814 52:0.16375604 102:0.44944838 162:0.10472151 179:0.073977465 180:0.30278006 215:0.32532934 291:0.3346368 312:0.1679449 355:0.1543489 373:0.14711558 408:0.22494066 411:0.19821209 502:0.19741787 574:0.17312497 641:0.58778385 643:0.24227416 644:0.29803171 645:0.19938701 664:0.27292636 671:0.13115585 761:0.29835315 764:0.15211023 829:0.13962869 1118:0.23588072 1155:0.41770227 1296:0.4177015 1359:0.14640391 1360:0.57361031 1424:0.22348828 1836:0.24440403 2139:0.76686532 2246:0.42442984 2659:0.64578404 2666:0.17865468 2771:0.16024711 6249:0.21351776 7831:1 8113:0.43969857 8856:1 
10 6:0.14035398 28:0.24195923 31:0.26028741 37:0.13828347 60:0.16654364 63:0.055451333 75:0.0462366 81:0.21701992 110:0.31044271 142:0.012346465 159:0.20349272 179:0.10850973 180:0.22205826 186:0.18483993 205:0.19592867 229:0.16966901 245:0.43381079 288:0.32389034 295:0.19136488 363:0.34299087 655:0.29324132 697:0.52669225 781:0.23083004 998:0.87316646 1463:0.21524006 2017:0.51090734 2239:0.27086265 2408:1 2465:1 2974:0.25631736 4308:0.64859979 6498:0.71967805 6756:1 7614:1 
10 6:0.18665033 15:0.09746137 31:0.057690648 60:0.11073956 63:0.036871182 75:0.03074393 80:0.10573484 97:0.10212676 142:0.073885743 144:0.37156098 179:0.14430245 180:0.29530616 209:0.13905204 275:0.12581012 317:0.13581665 345:0.1469918 408:0.10969408 430:0.13835454 560:0.15223553 643:0.47258672 644:0.5813502 655:0.19498451 853:0.20131821 987:0.1996403 1064:0.14819823 1214:0.35626667 1296:0.4073917 1411:0.44120238 2139:0.74793565 2236:0.19626579 2873:0.98425081 3050:0.63626342 3400:0.23434857 6391:0.78740139 6419:0.80582396 6992:0.31423088 7003:1 8974:1 
3.582873033726938 6:0.13304089 15:0.13893668 26:0.266082 63:0.05256215 67:0.60683061 80:0.15073135 94:0.15405169 97:0.14558778 142:0.093624917 153:0.56352765 178:0.39340714 192:0.82743758 198:0.26517229 226:0.24326563 291:0.46526828 308:0.23541523 317:0.19361475 345:0.20954558 409:0.13851278 613:0.29258113 727:0.23485914 909:0.35320869 1005:0.60841162 1050:0.4345933 1207:0.84416409 1557:0.68805752 1916:0.28459945 2246:0.59011184 2322:0.84599625 3206:1 6699:0.6445729 7323:0.96685845 7325:1 
10 6:0.44440645 15:0.30940019 31:0.091572338 68:0.18315624 81:0.22905132 174:0.20347283 179:0.1145257 186:0.19508738 204:0.3557408 205:0.20679098 240:0.45550238 256:0.23811098 345:0.23331963 347:0.26184762 387:0.24721329 437:0.19451558 478:0.36907491 852:0.57003183 998:0.23039307 1017:0.37451674 1175:0.31980835 1199:0.7481447 1463:0.22717335 2215:0.31026674 3909:0.8687473 4212:0.84196034 4349:0.564392 4591:0.47748117 6165:1 6173:0.46998575 7620:0.91871455 8746:1 
10 6:0.39842077 11:0.062031244 52:0.2272811 68:0.16420425 81:0.41070244 92:0.16899529 96:0.18203438 118:0.14152124 142:0.035047696 204:0.1594658 215:0.45153329 256:0.42694564 319:0.34476549 327:0.42085998 387:0.22163319 409:0.1382694 413:0.21339173 480:0.16457556 506:0.87161751 507:0.19493583 530:0.21228191 781:0.65525562 1010:0.62906604 1411:0.62785241 1817:0.24908134 1946:0.24871869 1960:1 2017:0.48343194 2227:0.50698625 2423:0.236692 2589:0.47544642 4858:1 5153:0.3668427 5474:1 6239:0.81379092 7375:0.99232108 9068:1 
10 6:0.5504049 11:0.064270484 15:0.14369927 26:0.3669358 27:0.071241269 63:0.10872775 67:0.62763207 75:0.045329628 92:0.17509576 142:0.10893876 153:0.58284384 159:0.19950164 174:0.18900359 178:0.20344669 185:0.2576963 219:0.25197607 296:0.68521056 301:0.17163959 304:0.15477094 409:0.14326067 506:0.18061595 613:0.6052198 713:0.49079353 1005:0.31463314 1045:0.12556078 1416:0.90413637 1720:0.70955568 1916:0.29435566 2153:0.31463274 2246:0.61034066 6699:1 7257:0.40774466 7323:1 7325:0.77570815 
10 12:0.3599917 31:0.252275 108:0.86438722 158:0.41201687 174:0.28027629 205:0.28484594 220:0.64363757 231:1 531:0.78779264 539:0.50838613 800:0.4333768 862:0.41481317 1482:1 2171:0.4900215 2280:0.44536012 2418:0.77640807 8112:1 
10 6:0.80287257 11:0.25000248 15:0.13974218 29:0.41577937 31:0.082718125 40:0.4162318 63:0.2114673 75:0.13224439 81:0.41381074 96:0.18341204 142:0.10593894 154:0.30282543 158:0.27019166 176:0.15345669 179:0.10345217 180:0.21170839 185:0.25060036 189:0.30901062 199:0.36942825 229:0.16176069 240:0.41146013 278:0.26317758 320:0.28913985 324:0.18893123 375:0.26199708 377:0.33516828 405:0.46475478 409:0.13931588 434:0.23114616 469:0.65312743 477:0.38866283 499:0.36009281 505:0.18684394 547:1 580:0.93759453 594:0.39261251 628:0.39426677 631:0.14912565 742:0.27607504 837:0.43656262 884:0.22061245 903:0.42254953 930:0.22193039 966:0.29463366 997:0.18014305 1380:0.20976696 1448:0.14931739 1466:0.90067366 1731:0.20210119 2134:0.18930216 2163:0.52733641 2164:0.50047029 2448:0.69248428 2722:1 5058:1 5153:0.3696197 5620:0.29786397 6710:0.32412913 9405:1 
10 2:0.086550548 4:0.11641723 6:0.46846413 15:0.16307494 26:0.10410302 27:0.16169435 29:0.32346743 31:0.096529608 33:0.16104617 63:0.12338784 75:0.051441661 81:0.72435275 142:0.068682121 176:0.53723622 183:0.33165164 189:0.1803025 204:0.18749993 205:0.43597029 227:0.17451525 355:0.25188546 413:0.2509061 427:0.28737543 467:0.38880129 507:0.22920541 510:0.28980389 1235:0.41328074 1381:0.63202567 1665:0.49268692 1891:0.29981907 2135:0.38302542 2161:0.48315991 2320:1 8312:0.9760945 9621:1 
10 6:0.1780099 26:0.11867359 31:0.22008049 60:0.21122697 63:0.07032877 142:0.01565894 252:0.48369674 373:0.27368378 493:0.4970336 764:0.28297609 772:0.31517319 776:1 882:0.38977573 2073:1 2103:0.66939394 2122:0.66939461 3578:0.87421676 5956:1 6484:1 
10 6:0.098963376 63:0.039098775 102:0.34862611 142:0.069643568 144:0.13133625 180:0.3131459 199:0.13660878 264:0.17316001 317:0.14402167 337:0.33373865 351:0.14265016 363:0.24184187 391:0.74990055 478:0.24656473 514:0.344886 527:0.42837052 574:0.17905222 685:0.15407855 719:0.16802547 804:0.42794985 850:0.19703319 963:0.099881905 1149:0.27241995 1374:1 1561:0.42781 1707:0.14981692 2575:0.44410236 3523:0.25588251 7029:1 8888:1 
10 4:0.084646533 6:0.45415841 11:0.053031679 26:0.26492602 27:0.029391909 28:0.19573324 29:0.058797978 41:0.1694384 54:0.075614515 60:0.067362737 63:0.17942986 75:0.11220914 83:0.028384926 88:0.15772381 94:0.19720553 96:0.23343725 97:0.37274278 102:0.13332482 134:0.1640176 142:0.11985197 158:0.22925733 176:0.13020762 185:0.10631734 192:0.35307593 199:0.078364753 227:0.063444791 237:0.42841382 239:0.26053341 240:0.17456167 252:0.077128336 255:0.38590939 278:0.11165299 289:0.079105786 304:0.063853434 312:0.099638819 328:0.087940576 339:0.062261811 346:0.084105654 351:0.24549154 386:0.05903123 405:0.19717177 406:0.16359503 408:0.066726823 413:0.091216355 432:0.089960983 472:0.088750841 475:0.33532721 480:0.14069925 507:0.083327469 530:0.090741996 537:0.13131584 571:0.085254059 603:0.080683955 645:0.11829284 683:0.34823556 737:0.091216475 743:0.23368179 774:0.12525146 795:0.11165318 800:0.12057116 814:0.12186786 827:0.11893436 829:0.16567875 895:0.09045453 1050:0.18544464 1057:0.10686755 1080:0.10566416 1083:0.15031306 1133:0.098586122 1232:0.27897808 1294:0.12190945 1457:0.30362741 1664:0.31133197 1835:0.19339006 1958:0.19342535 2106:0.26487993 2216:0.088690129 2657:0.47420932 2928:0.3122511 3366:0.13609166 3897:0.18832104 4684:0.53302894 4979:0.53572274 8366:1 
10 6:0.20186173 15:0.10540353 28:0.34799284 31:0.062391888 64:0.16195671 83:0.05046519 94:0.11687012 159:0.1463346 185:0.37804104 245:0.31195875 355:0.16280608 404:0.3239139 499:0.27160639 535:0.16027347 561:0.31196038 847:0.37874973 965:0.32146006 1007:0.25131281 1124:0.15326756 1259:0.28138003 1294:0.21674172 1309:0.19282521 1329:0.21666748 1544:0.20158887 1548:0.59150475 1652:0.46495278 1740:0.72742595 1955:0.37414302 2190:0.18493566 2478:1 2723:0.29828773 2771:0.16902763 3320:0.68074272 3509:0.48494414 6248:0.40741082 9072:1 
10 6:0.08330563 15:0.086997464 16:0.13115384 26:0.11107406 27:0.086260993 37:0.082076702 60:0.098850202 62:0.32823595 63:0.098737884 67:0.18998803 75:0.082329456 80:0.18876533 85:0.06594152 92:0.10600525 132:0.25776197 137:0.13390485 142:0.036640526 144:0.2211128 158:0.336419 172:0.14288544 177:0.4112988 179:0.25761823 183:0.70771849 204:0.10002788 218:0.11028739 219:0.15254963 299:0.14115111 355:0.13437614 398:0.1572232 400:0.086976262 408:0.19583373 441:0.12003242 471:0.11028991 504:0.37309776 505:0.11632089 506:0.10934728 507:0.12227699 539:0.20755346 574:0.15072293 586:0.30688073 610:0.18908968 631:0.092839058 643:0.21092393 684:0.26379816 688:0.22290387 731:0.18221642 757:0.1070109 768:0.31841471 771:0.44114932 800:0.17692955 862:0.16935107 913:0.26376322 963:0.084078895 1003:0.16620932 1009:0.13791047 1011:0.24300469 1111:0.24863712 1150:0.20755336 1223:0.28634017 1634:0.42228651 1776:0.40715751 2084:0.69447295 2886:1 2921:1 3402:0.84457028 3416:0.42544943 3676:0.50482259 5103:1 5762:0.84456975 5763:0.84456975 5764:0.84456975 6715:0.63460593 7369:1 
10 6:0.50194279 20:0.037771575 25:0.084647161 27:0.043312509 29:0.25993858 37:0.082423231 40:0.13011106 60:0.3970687 83:0.083657364 98:0.094653436 132:0.25885005 139:0.13161186 142:0.036795163 168:0.17145354 179:0.064676612 186:0.11017286 199:0.1154804 203:0.098112909 204:0.10045003 215:0.2844272 218:0.11075265 283:0.17077681 299:0.14174677 317:0.12174639 337:0.14106071 345:0.13176388 355:0.40483014 385:0.15267398 386:0.086989767 387:0.41882871 422:0.18017546 455:0.14215548 472:0.13078549 546:0.30415099 549:0.15447068 576:0.38598047 641:0.10277698 643:0.42362811 656:0.4562269 662:0.26072968 789:0.41423952 800:0.1776766 804:0.36176098 819:0.16691086 908:0.12563215 909:0.2221001 965:0.2664452 985:0.22104059 989:0.23136921 998:0.13011118 1000:0.6525292 1098:0.30512437 1207:0.53081678 1227:0.27531557 1267:0.67023279 1292:0.53373425 1335:0.29838756 1377:0.415293 1453:0.463131 1482:0.13666076 1486:0.64042913 1660:0.30492362 1827:0.2084293 1836:0.21367629 1943:0.18060724 2058:0.68310867 2106:0.39033315 2144:0.74191454 2393:0.19478276 3751:0.58538718 4264:0.7569353 4492:0.37126054 8625:1 9059:1 9920:1 
10 26:0.25209797 31:0.23375791 63:0.14939918 67:0.43120381 142:0.033264296 345:0.59559851 571:0.56788337 1932:1 2103:0.71099595 2122:0.71099538 5956:0.70809841 
10 6:0.22503588 15:0.039168188 16:0.05904853 21:0.05941282 26:0.075012132 27:0.058254811 29:0.038846114 37:0.036952766 57:0.04635325 60:0.13351379 62:0.2955591 63:0.074089946 67:0.21384223 75:0.061777655 80:0.084986376 85:0.059376757 92:0.095452123 132:0.23210039 137:0.060287136 142:0.02969352 144:0.099550068 158:0.22719542 170:0.066897777 172:0.064330238 174:0.051517005 177:0.1851764 179:0.11598603 180:0.05933937 183:0.71691942 204:0.045034806 215:0.12751793 218:0.099307842 219:0.068681405 229:0.045339881 232:0.23901225 262:0.10133473 283:0.076564536 289:0.10452561 291:0.26233136 299:0.12709887 309:0.099654713 331:0.098635842 345:0.059073885 355:0.060499225 363:0.091655483 381:0.048866753 382:0.065619248 398:0.070785209 400:0.039158642 408:0.13225326 432:0.059434441 441:0.10808259 455:0.06373271 471:0.049655025 485:0.052315039 493:0.20944634 504:0.16797754 505:0.052370323 506:0.049230625 507:0.11010358 539:0.093445237 543:0.078336226 574:0.13571771 586:0.46054989 610:0.085132646 631:0.041798282 643:0.18992554 684:0.11876792 688:0.15053419 719:0.063679825 721:0.28137274 731:0.0820379 754:0.080648578 757:0.14453621 768:0.14335733 771:0.19861532 800:0.079657636 827:0.078576286 862:0.076245835 876:0.1141209 887:0.17555188 913:0.1187522 963:0.037854244 969:0.22050924 1003:0.14966238 1009:0.062090425 1011:0.10940634 1111:0.11194215 1144:0.22389671 1150:0.093445161 1223:0.12891676 1322:0.12751736 1377:0.18618873 1418:0.12383771 1433:0.11778662 1473:0.28096412 1579:0.20439968 1584:0.48153227 1634:0.19012279 1776:0.18331162 1795:0.17204943 1827:0.093445234 1975:0.09293634 2041:0.17153893 2084:0.31266791 2241:0.24645547 2659:0.50624891 2705:0.092089247 2723:0.11084476 2886:0.77180998 2921:0.45022254 2945:0.12524018 3402:0.38024409 3416:0.19154733 3676:0.6818471 3955:0.30048652 3961:0.37141641 5103:0.45022281 5762:0.38024631 5763:0.38024631 5764:0.38024631 6455:0.2306556 6715:1 7369:0.90044407 7843:0.64478584 7888:0.38687198 7942:0.82946844 
10 26:0.32976861 31:0.30577697 63:0.19542875 67:0.56405623 142:0.043512876 345:0.77910163 2103:0.93005004 2122:0.9300514 5956:0.92626093 
10 6:0.42601568 26:0.14200502 27:0.16542303 29:0.22061816 37:0.314798 53:0.24706388 64:0.17089982 67:0.1214472 72:0.10728435 78:0.35752081 100:0.24534924 102:0.12506294 111:0.13216186 142:0.018737552 153:0.15037414 160:0.23480996 234:0.1799226 252:0.72348983 276:0.086314348 287:0.22423842 308:0.18845809 323:0.16751781 337:0.17958401 373:0.16374514 381:0.13876423 398:0.40201164 437:0.13984952 438:0.4010207 480:0.13198046 523:0.67077304 528:0.61766074 537:0.24635729 541:0.18227215 587:0.21505115 609:0.18542801 633:0.36372663 678:0.26579109 729:0.3282367 733:0.16702622 742:0.21973365 749:0.26367272 754:0.22901276 811:0.45021715 827:0.22312901 836:0.36332917 912:0.23048867 917:0.25426766 1088:0.34992326 1193:0.42618336 1241:0.22901263 1322:0.36210273 1485:0.2122797 1500:0.18111473 1602:0.29387466 1744:0.14167908 1990:0.83170291 2041:0.48710917 2134:0.90401801 2449:0.29308721 2815:0.27812929 3005:0.27834844 3318:0.67401333 3813:1 3822:0.67528722 3852:0.44714649 3904:0.18239081 4585:0.98735478 4684:1 4693:1 5227:1 5394:0.46354982 7578:1 
10 6:0.39999622 15:0.083544732 17:0.072245297 25:0.080946045 26:0.1066657 29:0.082857851 30:0.0445081 31:0.049453017 37:0.1576387 41:0.079590362 63:0.031606228 67:0.18244785 75:0.079062141 83:0.039999694 97:0.087544047 111:0.09927236 132:0.24753223 142:0.070372442 162:0.087552311 189:0.092370445 215:0.27199112 218:0.21182063 227:0.089405792 232:0.50980624 252:0.10868861 274:0.12717128 299:0.13554915 303:0.13379643 355:0.25808629 386:0.083186386 389:0.14816904 398:0.60393183 414:0.12250889 437:0.10504687 465:0.13138602 478:0.19931636 507:0.11742405 514:0.27879695 553:0.14487709 586:0.098234002 710:0.34572326 780:0.18756935 808:0.20665543 826:0.2459052 836:0.27291152 853:0.17257175 975:0.34448152 996:0.16028419 1003:0.15961279 1025:0.29730196 1081:0.15129733 1098:0.29178317 1169:0.20300954 1243:0.41247572 1322:0.27199055 1377:0.39713455 1379:0.17954408 1412:0.33505758 1431:0.10257883 1489:0.1129522 1526:0.37438279 1717:0.61741769 1802:0.25038275 1816:0.33932091 1984:0.48090423 2246:0.354844 2351:0.18292354 2401:0.11700176 3728:1 5461:0.6675307 6260:1 6282:0.84322181 6763:0.6995561 7885:1 
10 6:0.53068251 15:0.18473345 31:0.10935009 63:0.069887709 75:0.058273815 81:0.27351934 106:0.15017832 142:0.015560754 159:0.25647088 186:0.69888584 245:0.54674899 347:0.31268283 355:0.28533945 582:0.34216437 781:0.87277541 850:0.35219269 1001:0.2912639 1726:0.81285731 1734:0.87479552 1751:0.32523045 2227:0.67528633 3285:1 3718:0.81616299 5294:1 6525:0.34003577 7225:1 8949:0.38313177 
10 6:0.10505363 15:0.10970907 26:0.14007131 28:0.1811044 29:0.10880701 30:0.058447173 33:0.21668885 63:0.083009581 75:0.10382273 80:0.11902237 114:0.087716447 142:0.083170946 172:0.18018734 204:0.12614123 205:0.14665074 208:0.093383745 213:0.15682527 317:0.15288468 333:0.26031664 404:0.16857283 437:0.13794533 441:0.15136824 561:0.3247044 579:0.26164941 644:0.32720352 743:0.43243314 768:0.40154094 784:0.56337076 1027:0.38244947 1271:0.38699695 1332:0.33031513 1411:0.4966477 1561:0.45413779 1598:0.22043159 2976:0.21967256 4944:0.9885146 8898:1 9060:1 
10 27:0.057329962 29:0.11468753 31:0.13690089 51:0.1220431 63:0.043748156 64:0.53305076 65:0.26320874 75:0.072956029 83:0.055365816 96:0.15177594 98:0.12528647 132:0.34262253 138:0.12745074 142:0.058444071 172:0.18992624 179:0.17121627 215:0.37647729 242:0.1754514 337:0.18671224 377:0.5547105 381:0.14427262 442:0.11219137 471:0.14659941 485:0.15445295 499:0.14899048 507:0.16253265 534:0.15658129 643:0.28036403 671:0.15177634 710:0.23926604 731:0.2422056 819:0.22092878 1003:0.22092851 1007:0.13785804 1047:0.40760942 1319:0.58638565 1486:0.84769232 2353:0.27261675 4126:0.58423232 5322:0.79430302 5906:1 6377:1 8729:1 9065:1 9609:1 
10 6:0.089765288 31:0.055489873 63:0.035464649 75:0.029571091 80:0.10170131 142:0.039481678 144:0.2382585 172:0.15396488 180:0.14202043 205:0.25061762 256:0.14428774 265:0.11194765 308:0.31767841 326:0.22998661 327:0.14223069 367:0.22144504 387:0.14980366 772:0.15893272 852:0.17271051 1028:0.62597774 1073:0.25882626 1076:0.21477933 1102:0.43813694 1133:0.311773 1179:0.44227552 1214:0.34267605 2149:1 2172:0.79608567 2442:0.28066874 2736:0.43929184 2804:1 2873:0.94670556 3167:0.34921215 3807:0.41248557 4147:0.57112839 5137:1 5324:1 7025:1 9395:1 9588:1 9592:1 
10 6:0.20189815 26:0.10094918 27:0.13066306 28:0.087014196 29:0.052278064 31:0.031201722 41:0.050216552 42:0.051484974 63:0.079766445 64:0.16198688 67:0.17266984 68:0.062407278 75:0.016627752 81:0.078045449 83:0.050474666 88:0.14023389 100:0.11627679 142:0.053280893 185:0.094527949 186:0.066472645 232:0.080414022 265:0.062947627 274:0.080237094 284:0.091937962 286:0.23091727 308:0.17862937 312:0.088589944 339:0.055357697 341:0.10043856 345:0.079499905 349:0.06709803 355:0.081418319 365:0.15329616 389:0.093485435 475:0.14907144 539:0.12575624 560:0.082335854 561:0.1560089 587:0.10191771 609:0.087878527 633:0.086189493 713:0.1800322 730:0.092429132 732:0.2347899 772:0.08936715 882:0.11052022 890:0.094988976 960:0.09473395 1027:0.18375402 1031:0.10896936 1150:0.12575586 1190:0.4648787 1433:0.15851371 1551:0.088572164 2219:0.11151336 2705:0.24786241 2740:0.24100703 2998:0.11619164 4486:0.22958394 4595:0.40919472 4938:1 6485:0.47057032 8431:0.67514259 9070:1 9071:1 9073:1 9096:1 9601:1 
10 4:0.075947784 6:0.35655025 26:0.23769983 27:0.07911389 31:0.03148677 33:0.052531185 37:0.10036862 41:0.20270092 62:0.46828674 63:0.10061905 67:0.34849582 68:0.12595493 75:0.050338825 81:0.07875838 83:0.025467895 88:0.070757571 100:0.058669347 110:0.11266248 135:0.08072326 142:0.071689994 168:0.10439159 176:0.058413229 179:0.078758361 215:0.17317751 218:0.13486621 228:0.051176689 232:0.081148669 234:0.086048547 274:0.1619403 291:0.17813177 308:0.18026104 320:0.11006142 322:0.072603123 345:0.080226127 346:0.075462325 455:0.086553248 457:0.070234052 475:0.1504334 478:0.12690477 480:0.06312007 485:0.071047289 505:0.071122402 508:0.078909394 515:0.16068055 539:0.12690482 574:0.18431337 586:0.062545728 609:0.08868162 610:0.34684632 621:0.13588236 749:0.12610215 794:0.91614609 827:0.21342397 856:0.12107356 873:0.11687395 882:0.22305981 912:0.11023171 986:0.089381333 1017:0.12877608 1024:0.093564342 1055:0.068302769 1083:0.26973211 1111:0.15202474 1117:0.21787393 1178:0.37425726 1228:0.092157037 1292:0.32497034 1335:0.18167676 1511:0.26093017 1591:0.17597202 1808:0.071426549 1842:0.76491401 2423:0.090778682 2615:0.20193824 2771:0.085301696 2970:0.19139717 3289:0.95962008 4021:0.98848726 4338:1 6311:0.4104502 
10 6:0.35312859 12:0.044499948 15:0.052682462 26:0.03363119 27:0.052236392 31:0.031184517 33:0.052027159 37:0.049702604 41:0.10037768 42:0.051456631 55:0.10812618 57:0.06234647 62:0.13251208 63:0.039861371 68:0.062373159 75:0.033237334 81:0.15600484 83:0.025223461 84:0.14107512 88:0.070078346 108:0.071233148 110:0.11158109 142:0.02662581 158:0.10186146 168:0.10338971 172:0.08652618 174:0.13858376 179:0.078002493 185:0.28342753 208:0.089685987 218:0.066786032 229:0.24393345 232:0.080369688 239:0.077171878 243:0.14912979 252:0.068538083 259:0.11582247 274:0.08019307 286:0.076930339 296:0.12560496 308:0.17853116 320:0.10900496 385:0.18413067 406:0.14537407 439:0.08019313 455:0.085722658 457:0.069559963 475:0.1489895 478:0.12568691 514:0.17580698 550:0.097521178 574:0.18254461 586:0.12389066 609:0.087830257 610:0.11450587 644:0.15712371 653:0.12386298 684:0.15974692 732:0.23466066 778:0.16313694 834:0.22047931 882:0.44183802 890:0.094936771 960:0.28404585 987:0.10791513 1017:0.12754021 1024:0.18533264 1037:0.087425969 1055:0.067647225 1080:0.093895719 1083:0.13357162 1111:0.45169554 1138:0.13771572 1146:0.31752365 1178:0.37066592 1210:0.18115348 1296:0.11010748 1379:0.22643757 1479:0.13586481 1497:0.18786978 1645:0.27234854 1697:0.25268521 1858:0.21781944 2423:0.08990741 2424:0.24709429 2528:0.20510527 2615:1 2620:0.21389596 2913:0.40896798 2970:0.18956062 3289:0.095041116 3589:0.078028836 3739:0.47178327 3864:0.56366515 3881:1 4008:0.65556879 4021:0.89000022 4338:0.99040289 5541:0.56366745 7915:0.84549911 
